solver_type L2R_L1LOSS_SVR_DUAL
nr_class 2
nr_feature 2843
bias -1.0000000000000000
w
-0.64315976451633560 
0.18075120562203092 
0.40956166741166145 
-0.019166771669057822 
-0.17734013854942265 
-0.13029153204514518 
-0.021537440474694680 
0.051780228073974820 
0.063107604373117600 
0.10663760777283970 
0.072145745628668180 
0.11548398867401702 
0.12030701394195294 
-0.039155532333664346 
0.022724278301789950 
-0.18688657756246452 
-0.23586558531953777 
0.010522959370729395 
-0.0011418992238052866 
-0.16089307744605924 
-0.081989428148884670 
-0.20403780088518840 
-0.067961557047915580 
0.33275273046760995 
-0.30209652950459950 
0.11959007786448364 
-0.29666681814379440 
-0.18345142324689048 
0.0013554532655169751 
-0.015976512424881902 
-0.068265857504309790 
-0.026586244814887403 
-0.25264940897814300 
-0.13308341819305480 
0.12221557295515162 
-0.057638718846931926 
0.12574586993463818 
-0.011982346050358922 
0.031575886385473480 
0.15648013428768980 
0.033107062027861026 
-0.017462651286604534 
-0.081656947341571720 
0.10012301643240301 
0.066811896860599520 
0.35742303510310924 
0.14145323938726778 
0.012422006517596711 
-0.17194283181861160 
0.097652204573854470 
0.11387341213213188 
0.047720232853356456 
0.12012433835188642 
0.12785352535229383 
-0.10850646392434704 
-0.037206049522571435 
0.046964344457575614 
-0.015658755462537834 
-0.083400226061400850 
0.097151041142000380 
1.0388640589168523 
1.2507305354990428 
0.18400186522042955 
0.067409582091444970 
-0.48338897538664090 
0.11660984691151025 
-0.0027187981990258800 
0.16874312059162064 
0.27279150314334440 
-0.84502967678198540 
-0.0073859157707055950 
0.094840486319965260 
0.060091641422753320 
0.20195551957840070 
0.34688192301161080 
0.13240531247199158 
-0.21338239876562687 
-0.37649201822359590 
-0.022294270545778445 
-0.028445316433734910 
-0.011653541185693258 
0.0059916001549570240 
0.044752636467307970 
-0.069384411877873730 
-0.095459956153133000 
-0.059638331470219866 
-0.14377551640176253 
0.080702857956824980 
-0.044660760601882246 
0.39501511452727920 
-0.13904643770756495 
0.19936152635886906 
-0.048862533859777920 
-0.12383124948601053 
-0.075152900196310280 
-0.018821480523900796 
0.025772195334934862 
-0.050987050158590590 
-0.029892852532122000 
0.0028943248139743460 
0.061461687009197830 
0.10514831421083590 
-0.037995390096213640 
0.26851200563506844 
0.27694159463398554 
0.11066552255766886 
0.021318658279474312 
-0.10326541661781247 
-0.030946971502375693 
0.0034486287807502514 
0.084918220610883350 
-0.058537456771759840 
0.10556831432019040 
0.053225193991349910 
0.038800414539616200 
-0.016387824605352014 
-0.097094358743470110 
0.31491655489321720 
0.10294320687842468 
-0.053907577751055140 
0.082740238957858180 
0.012930151294880858 
-0.42258558784391050 
0.20352958677980580 
-0.14046521667511594 
-0.079535021803386600 
0.21108903733028778 
0.14270833599917995 
0.12404582471168098 
-0.10774267960026890 
-0.48028662410998680 
-0.13018863801305824 
0.23390043970353327 
0.00019349513602777397 
-0.20043569058179855 
-0.0073798801515009010 
0.086159451899615840 
-0.065005850478674940 
0.17046446452350456 
0.027332468909158802 
0.017046630047379264 
0.010731732809684518 
-0.078788357057667670 
-0.010717140585471976 
-0.0085949856153897420 
-0.0025704254385878304 
0.012042333780776893 
-0.0079194842097520640 
0.043066611925513640 
0.035684687634830320 
0.0027075289906203960 
-0.085856583293780330 
0.063700136601348730 
0.039862548476943660 
-0.023537932666616967 
-0.026248426280726107 
0.14723639209985095 
0.13999326237172302 
0.060181819424568225 
-0.13049017191378667 
-0.088257344742705150 
-0.018668838683619206 
0.015212483317910504 
0.11353540866947004 
-0.067479960896225860 
0.077214543496966080 
-0.038779232047495350 
-0.014651420360749610 
-0.022916249531861815 
-0.22917338609236737 
0.0032440518446162140 
-0.10548620619732160 
-0.00079957028135313030 
0.061500945349393230 
0.16697959967672293 
0.059463317622525890 
0.040904608620193470 
0.098586825302406910 
0.11372178357068519 
0.055253405597018920 
0.17268901779795504 
0.16341929423036816 
0.037844433689706566 
0.063619292977550670 
0.024779399679907246 
0.53193156212483930 
0.027849950451747060 
0.050534653188846200 
-0.079314691839961230 
-0.18132875771450435 
-0.045721103638324120 
0.0094461453861087630 
0.013359765553428856 
0.11264719393138620 
0.15314679989754565 
0.18130532951128359 
0.17746099814550162 
0.18956991207155202 
0.11266447808415430 
0.026793783106521613 
-0.079347755843103860 
0.097311063126051140 
0.029227144250515200 
-0.049564193699702520 
0.040842387028330780 
-0.065082619094100640 
-0.014052641087549370 
0.12070379309082215 
0.22859367805935263 
-0.16237344802018405 
0.37229810249868156 
-0.0081368351188706270 
-0.086525188710500840 
0.067962348482369010 
-0.043528602577126645 
0.10704169604080861 
0.14902998902595116 
-9.0586699710898610e-05 
-0.024748607580283914 
-0.10163715644865923 
0.23141302354948670 
0.39666859854877506 
0.062681434316407910 
-0.074700686126108680 
-0.073779342951297750 
-0.15041597128608145 
0.15016672688489720 
0.073438606178347770 
0.23963854381355450 
0.15123071833382640 
-0.11986752050941082 
-0.068577268989986920 
0.20131364103625604 
-0.0014333953215916618 
0.099841221244581200 
0.077617191692761950 
0.22447391315755835 
0.096262084720510180 
0.094655521585470660 
0.10115189667263824 
-0.10941578040569357 
-0.38776574946291970 
0.55270805227778240 
0.17027412132471670 
0.58256422942191590 
0.39289325319191500 
0.34622246883347760 
0.38788365511631610 
0.027659278674464625 
-0.24125078564829266 
0.37689053670627970 
-0.018220892439760137 
0.013008024525830887 
0.045988706099838336 
0.052183021713599960 
0.11376052440432640 
0.14209246819828375 
-0.26571608579399475 
0.11461880244673510 
-0.12984152019780465 
-0.21889355609792060 
0.21765699071839725 
-0.093884367094804740 
0.18677407494430276 
0.26663672947351275 
0.18384710061822390 
0.0025504766932405220 
-0.072825463901591100 
-0.019466957930444014 
0.018761962717896073 
-0.038657999170180670 
0.15171910913869666 
0.016872635167476616 
0.031551738318965614 
-0.10822117798369031 
-0.050915353498576475 
0.040125820282865900 
0.30913686486683456 
-0.027655472627223388 
0.048253600017326860 
-0.016022376435076120 
-0.074227183321360430 
-0.055649467131485350 
-0.067060263225998300 
0.068817983983051820 
-0.051050921233198940 
0.10411161093015663 
-0.024709037478134290 
-0.033305370475750850 
-0.18969181630243400 
0.16999292570716673 
-0.019342790768576743 
-0.074395875503995280 
-0.16513176673822613 
-0.072169702305308600 
0.052432966939524360 
0.027704192184092903 
0.38120635667929775 
-0.15780247554154472 
0.067136145647756160 
0.15176750471746364 
-0.21313910082886967 
-0.16715303384300528 
-0.066616925182268110 
-0.15373997873431394 
-0.13153261100640093 
-0.014515499713336816 
0.11112207656156305 
-0.26452928327963676 
-0.16727984847811542 
-0.083741266707852350 
0.18020508036784760 
-0.15969931831625833 
0.21276408598446192 
0.12100799708833966 
-0.032239216395996105 
-0.027986346319921250 
0.28211066039948320 
0.19857788569113338 
0.0062987361952951840 
0.065196164631349320 
-0.092287395343153250 
-0.17158785604885504 
-0.019490215163119050 
-0.10314521559722704 
-0.14974854478344140 
-0.080947181332230080 
0.081580088836659290 
-0.075087737156771510 
-0.061888118866075500 
-0.19416844696690158 
0.23653031179475936 
-0.26457761940556930 
-0.085811528465518020 
0.027421245645179344 
0.044041596129376366 
-0.10663142751230363 
-0.084250485808139700 
-0.12614235765121320 
-0.026717073035615813 
-0.037648602696640644 
-0.15176025312470912 
-0.19998561513605703 
0.22810433024145488 
0.16809277047082488 
-0.056980315049224770 
-0.070687058229448640 
0.040948625396104200 
-0.12618463803252158 
-0.12953241436618818 
0.096655417579787710 
0.071746195984545870 
0.0013838506468499328 
-0.014863927106460633 
0.18927283475689133 
0.16288979099393777 
0.20013232815136414 
-0.062862878988646310 
0.11421812599347464 
0.087219664296819700 
-0.25607678277689760 
0.12419603892378331 
0.053102877853555620 
0.020979531267513733 
0.15309033972036873 
0.058048613005467000 
0.0096535286789470900 
0.10455626297613763 
0.041995130603816510 
0.059336198672202840 
-0.042153934204715870 
0.024872382268760318 
0.048178275515088950 
0.077992022245650620 
0.11006399842751324 
0.075813579772012310 
0.16303326410089750 
0.079852994726500340 
0.10276274002961605 
-0.028448803782351234 
-0.010741483751217145 
-0.040970528529864780 
0.0084307411996612860 
0.055537291243053920 
0.060573528939000525 
0.11741886869546632 
-0.043989680282091756 
0.043438722070721190 
-0.023906493689954112 
0.026685913551211596 
-0.071055290823529820 
0.0027668940588171844 
0.0062079385054766140 
-0.093561038959295560 
0.26784088979937160 
-0.0026532702585927203 
0.087035123374508640 
0.16603787764616970 
0.082128679592524140 
0.070877655487600740 
0.0029030620613138044 
0.0095669883994094420 
0.050092351994023610 
0.083320668007359460 
0.048530826065744506 
0.024630431375574120 
-0.10206759294413958 
-0.12449385049296840 
0.053833128722006940 
0.13811377868785904 
-0.0070556256837044510 
0.26500125031674840 
0.069395849674027040 
0.14874933266558600 
0.040593674482617320 
-0.020085350951626457 
0.032075383407299370 
-0.098630534763597800 
0.096638037560120270 
0.10029593377158190 
-0.10538556532079480 
0.092768220787315840 
0.048098368078542175 
0.40613517922587944 
0.18851082265126798 
-0.032645269759263050 
0.29381383951320145 
0.053795619185321170 
0.062363399897200196 
0.10270004190018574 
0.10114035166933993 
-0.033274727398185740 
-0.27506478118445220 
0.15566367124769162 
-6.2656762371888510e-05 
-0.093264350849337360 
0.20923162491761360 
0.36765307611484090 
-0.16913401036477750 
-0.056856399952073370 
-0.034076468469499605 
-0.087394655728667540 
0.16341884705173707 
0.0013817449898005040 
0.050858262040108130 
0.026110975132766170 
-0.051997696900869130 
0.040715747601447860 
-0.17431027588942608 
-0.099177236743940690 
0.13591831047599187 
-0.0047619308751178830 
0.054003009420708230 
-0.0073485051403511050 
0.093563959793320520 
0.020760874292720390 
-0.0068370041830249310 
-0.022093941919700363 
-0.077542569422005380 
0.075621646593288660 
-0.061295009290472910 
-0.14946526399405377 
0.14823767158938000 
-0.050479112336928170 
-0.027337954073785060 
-0.016370322688650546 
0.050662149515618320 
0.012724447943206261 
0.016269453448991280 
-0.0062664946376132790 
-0.0087626646283341760 
-0.091096970557557800 
0.019130765479718650 
0.027581816005724357 
0.064700429665182870 
-0.0095718955947346920 
0.042545659199991065 
-0.065939228288561820 
-0.0028224236552594506 
-0.066865833381489830 
0.015898888605187190 
-0.023348954774521608 
-0.037291528071680166 
0.066811896860599520 
0.031531572810216000 
0 
-0.0083969863384501140 
0.018296077241355596 
0.032297113597611296 
-0.018178731545252555 
-0.016945564964228606 
0.019646640266890947 
0.034113583307942570 
-0.066811896860599520 
0.066811896860599520 
-0.026755895075364692 
0.0074204550878326940 
-0.0042721103452355440 
-0.015275826815544208 
0.0092787671701408100 
-0.071269307245508670 
0 
0.039400330444129425 
-0.095807672818351240 
0.022125541696467237 
0.066128916378270020 
0.022655027497298800 
-0.0018252913778139127 
-0.031852411530292175 
0.049460727015571600 
0.046845998543946984 
0.062323673164384870 
-0.032054416975835144 
-0.024142220533403550 
0.022774517051751788 
0.043485927168762090 
-0.028017158376095357 
0.12560049423267997 
0.016282123771323237 
0.028323087321895180 
0.0078733605601639770 
0.037026253353628000 
-0.098419611876611980 
0.10847256516546949 
-0.054194939002667565 
0.082651068893135620 
-0.066811896860599520 
-0.052473293797543300 
0.034727857702147110 
-0.026818226261097818 
0.057938624047775240 
-0.13701892704419064 
0.037389526963560090 
0.0083963135573784970 
0.0095613674442375250 
0.085899669154245680 
0.062477747998229125 
0.035884731378266540 
-0.037927107378007490 
-0.040679911933428110 
-0.077434361884310300 
0.0048993873690866790 
-0.033216081475998915 
-0.011400830119360878 
0.028977196906711595 
-0.012101694677426627 
0.15266996502164137 
-0.020061343848564096 
0.030102639139154910 
-0.040443913902473080 
0.0080806090567920740 
0.033290453136159210 
-0.017773404789540842 
-0.054167424229938935 
-0.082169025434148170 
0.045675946197924505 
-0.053674242918988450 
0.036814037858178380 
-0.0056461610702435470 
-0.078113811708995960 
-0.058660134166715484 
-0.074157007861074820 
-0.047229067482225740 
0.084138499314089270 
0.071884703326707670 
0.16401243084814710 
-0.0016992445547767566 
0.046022924065735105 
0 
-0.042675399105201060 
0.024136497755398650 
-0.0045331536208755580 
-0.0065417218594318430 
-0.045988578038848905 
-0.030205551605578737 
0.066811896860599520 
-0.021615443211820280 
0.034714715814391800 
0.045332012577128336 
0.0029945465545776553 
0 
-0.044561615017659090 
-0.023365477613389675 
0.066811896860599520 
-0.066811896860599520 
5.2041704279304210e-18 
0.0093088754084267660 
0.36697948397451830 
0.024841682746135962 
-0.0058506890323295850 
-0.014278068897340613 
-0.020927800875833874 
0.017581488152659124 
0.014665231598045620 
0.054636911669167380 
-0.056653775257515290 
-0.044971372992347990 
-0.038417185229920770 
-0.036568903804120840 
-0.045090139859081290 
0.0072603811394990160 
-0.066811896860599520 
-0.0033588776608096498 
-0.015597544753484464 
0.062149843271807500 
-0.070896909596270460 
-0.024643219293720237 
-0.011746426768508003 
0.014747804741342590 
-0.030385548897847260 
0.016057316311566000 
-0.25221328126020600 
-0.085635645473245260 
0.044501451274273500 
-0.011130977111210078 
0.0091690228561422530 
-0.084703663939562770 
0.0092505446251237350 
0.10207096780382409 
0.093775421014778750 
-0.14000978737240669 
-0.0044148384581226810 
-0.017780971137378056 
-0.0021840742761394787 
-0.0015542170658343051 
-0.0071409723746956590 
-0.027395271119318384 
0.018291890599565060 
-0.0091474439979068850 
0.033591757104978360 
0.0015806364991206940 
-0.013134309873983879 
0.0082407576202144200 
-0.015754980526846016 
-0.034574875037007770 
0.019521731211051618 
-0.035485982919890816 
-0.024004418035580496 
-0.018445588571720652 
0.022375361714247850 
0.022354946658210330 
-0.089217306707869120 
-0.019948144955091545 
0.075848827424368330 
-0.016577455473238942 
0.023685147683702466 
-0.054570057460533990 
0.069896078883521710 
0 
-0.0015991110721630653 
-0.0060987638776158530 
-0.058973238718901090 
-0.020329822930737020 
0.031995946511026200 
0.013818058620895753 
-0.0099654112529072580 
-0.028828589859430067 
-0.011386966585860700 
0.14277425770397317 
0.018464399868078567 
-0.0048709012607291380 
-0.011514895393151228 
0.037212199218543520 
-0.075841077455799820 
0.0023478851306458037 
-0.0010795086624586760 
-0.0056045437544590610 
0.036636125651557360 
-0.018937382545572870 
-0.039638789750218730 
0 
0.044005354577727106 
-0.0067944136283240110 
-0.089618439143471980 
0 
0.044214765260725646 
0.0043856868497748620 
0.23651896029808406 
-0.045794794304134634 
-0.033004018021713520 
-0.047885308297662306 
0.024598568196290495 
0.0037014963568691820 
-0.19494987396190622 
0.059822426018095294 
-0.040074074416348690 
-0.043060998257426940 
0.045900380346275630 
-0.021905066683944630 
0.00088238557709637120 
0.069115115283995010 
0.066811896860599520 
0.11922403792944501 
0.033790557825820160 
0.060669011209720180 
0.0016927764084524333 
0.038727720415817304 
-0.026447024117567008 
0.064676236824082590 
-0.10712268188047244 
-0.052020192364963990 
0.026030627359065674 
0.0064509909928276240 
-0.00019092432612376460 
-0.044813759645262780 
-0.037319714064875546 
0.021439940754893020 
-0.046258705772511980 
-0.045989280549280594 
0.059970660078026870 
-0.12310093598296445 
-0.027279193862811780 
-0.027940872706334868 
0.030459168992771513 
-0.046003677559921760 
0.063078316405860480 
0.035056337443599110 
-0.070554168896964920 
-0.0016983619368298474 
3.4694469519536140e-18 
0.036527771734926590 
0.038685512591841000 
0.015765847726520878 
-0.064309357014282200 
-0.0044716689579992475 
-0.039613771118743080 
0.0024159613647835145 
-0.016993556000381950 
0.12512509847600098 
-0.012451517538724635 
0.0070180863636047250 
-0.020266597264465714 
-0.034416298073692946 
0.0076954961884150175 
0.057354862282711180 
-0.026118571765053184 
-0.052420729602384280 
-0.011913657023751347 
-0.029606130647339378 
0.0011296848007990440 
0.014699869436316439 
-0.0098648460233117870 
-0.021583981078624984 
-0.047354053813561496 
-0.035977849888402136 
-0.0042929573874464335 
0.049526438568932920 
0.050854896503434825 
-0.055568067079485715 
0.070481857434681790 
0.0033186221805975866 
0.070877624052208920 
-0.056716285225944350 
-0.087244247436861070 
-0.020705981215718563 
-0.066811896860599520 
0.071627488317062780 
-0.025513750218644240 
-0.0025600260895834327 
-0.013175069551388124 
-0.14631372938875215 
0.0087510888260819570 
0.15302018520547583 
-0.076500919406928620 
-0.040756581794302200 
0.093905921262324830 
-0.059023765066112150 
-0.059908779392427750 
-0.064493813034024880 
0.028482150136785720 
0.055546009977134950 
-0.026901820337610214 
0.15887199300855753 
0.10344912524105367 
0.098300503885219770 
-0.12721951566985862 
-0.081663621800236060 
-0.061567633365654700 
0.15342736780784513 
0.040594662048436220 
-0.16597560515728077 
-0.063963948408690160 
-0.0037635442605156870 
-0.065105847204584520 
0.029130905649109088 
-0.098998849818053180 
0.082885365167646790 
0.13404224952445315 
0.063446413031219480 
-0.035261445855883145 
-0.056537565019632400 
-0.040332551564658660 
0.032150587395376170 
-0.015512536222947518 
-0.066811896860599520 
-0.012014999024942831 
-0.0028725499006230520 
-0.018457608949859816 
0.033222994580383130 
5.2041704279304210e-18 
0.0090009906850761840 
-0.028484739546755306 
0.090653650190391120 
-0.0022724254922632894 
-0.18492047843839637 
0.031862107892464100 
-0.097151569994038050 
-0.0049892056019830286 
-0.011534564613047280 
0.0026621784392157778 
0.035690928170989920 
-0.022731585218218317 
0.015107712050434183 
0.023994231112129435 
0 
-0.042805188539612140 
0 
0.066811896860599520 
0.032615110791433880 
-0.0037498332219845117 
-0.00014233288645485722 
0.034038219787694010 
-0.10608721787023550 
-0.066811896860599520 
0.0071349712671448190 
0.015038719613972250 
0.014448079503473685 
-0.018367819439963077 
-0.0031538582566382166 
0.0060662283741297550 
0.025180879972885810 
0 
0.034460112309568850 
0.030102950823407350 
-0.0081954275974662660 
-0.037039897708345315 
0.0019196136431397226 
0.044156275730924720 
-0.00080130098929158000 
0.0016973655632322227 
0.011427543995489904 
0.080639498564327370 
-0.032385592355053984 
-0.029579451594052530 
0.052301183666255927 
-0.0037823768773450780 
0.024970548893991095 
-0.066811896860599520 
-0.0086221055046126170 
0.012297337775314342 
-0.031583929171500780 
-0.042157676570233410 
0.023070287877898516 
0 
-0.037977005560659687 
0.0097865263645275600 
0.029532076221550966 
0.032295058318381864 
0.022511106288213050 
-0.018529661738804156 
-0.0070401530722514170 
-0.033405948430299745 
-0.046319422210512330 
0.0095774280569934440 
-0.066811896860599520 
0.056824055426670690 
0.12555382827803946 
-0.0082318786933602300 
0.0011384797227668710 
-0.11519815682227207 
0.12590857448286530 
-0.00038015520053972813 
0.28119857439608600 
0.0090960710899002440 
0.011877637438142880 
0.066811896860599520 
-6.9388939039072280e-18 
-0.012289967997976187 
-0.040073688683969760 
-0.14826304778623090 
-0.033405948430299750 
-0.033237046046547320 
-0.00034917745012992833 
-0.034573183986905430 
-0.042680468061416950 
-0.024222857776225410 
-0.017518267445339790 
-1.3353317479536386e-09 
-0.055734480512096850 
0.0027689701750170190 
0.035407304082000570 
-0.077058897829636990 
-0.0019153115166325612 
-0.066811896860599520 
-0.0036186546536456548 
0 
-0.027789509793016268 
-0.071169736859662630 
-0.017631404118359194 
-0.054904299297057310 
0.018080594382940750 
0.055293364351693120 
-0.0077400070224670110 
0.0055547423144270960 
0 
-0.0066235681232812150 
0.0098332849294428710 
0.027492813426780484 
0.025368108966277490 
0.019986839243782948 
0.017208363015220666 
0.0017501839257351524 
0.051467716118765425 
0.017536436542819632 
0.097800924949923780 
0.093086593510786780 
-0.066811896860599520 
0.13531200167148422 
-0.13362379372119904 
-0.00050290009097146440 
0.011291004435529061 
0.00058126191829870060 
-0.046554149033798314 
-0.016894626019968786 
-0.026036273072183487 
3.4694469519536140e-18 
0.029256692013780228 
-0.028665307246860793 
0.0052309661488125310 
0.054378101256661135 
6.9388939039072280e-18 
-0.015701854045342033 
-3.4694469519536140e-18 
-0.028194708278216220 
0.0036691592248120560 
0.064318142012031860 
-0.066811896860599520 
0.025761921118824006 
0.087352005353975500 
5.0306980803327406e-17 
-0.0068878078852555695 
-0.023923388323128090 
-0.045056182218683020 
0.030364464425737293 
-0.020045342353570910 
-0.029293272937195032 
0.061091102160208880 
-0.0051838933038322990 
0.073050657783848170 
-0.066811896860599520 
0.020507854679294404 
0.13569341233799143 
-0.043174400424225545 
0.036167257969751760 
0.067934235107303290 
-0.11994285254631867 
0.038815750032451480 
-0.0068364995330920135 
0.021156733479725527 
0.019017218122281514 
-0.065540629489146810 
-0.069879926445321160 
0.057572336945282490 
0.013623898637824320 
0.0030890517016062450 
-0.019317808042380247 
-0.0011634920895395489 
0.15610836223371424 
-0.066811896860599520 
0.13858874143357836 
-0.045993914529203850 
-0.037931559584180210 
0.086250152384933760 
0.0089659496677331070 
0.016529906637743466 
0.068759608173110750 
0 
0.097524701127690890 
-0.00090454167867567960 
-0.26724758744239774 
0.0091856443961138190 
-0.074911619762789200 
-0.047765725560155195 
-0.062891622989647620 
0.0070396953601742270 
0.010444609977014787 
-0.015355770475681775 
0.048307270855477930 
0.010749197129800620 
-0.026890965148828980 
-0.022921863021297256 
-0.0096799633036583410 
0.014216938710156621 
0.0034800514810251830 
-0.012255488551145378 
0.017001428744338788 
-0.054840446110406366 
0.0018025797710059096 
-0.026494288870102516 
0.036398568332342910 
0.066811896860599520 
0.053619926445053490 
0.00010720681602322977 
-0.0048449827249577720 
-0.038760242908803330 
-0.010166664044155300 
-0.025419700977971130 
-0.0063082858204354570 
-0.0046749934235574020 
0.0091819610189135430 
0.011796705808610910 
-0.031884699110710610 
0.0028669629838511726 
0.021318470508073880 
-0.0038446289206300723 
0.022775746970613447 
0.012799490523246988 
0.056000836656263764 
0.014557137866805132 
-0.32800348251019684 
0.050809438535182330 
0.058130153486625355 
-0.042402910774537400 
0.021760109296259225 
-0.019745549857023400 
0.0049452824581302270 
-0.0079713665704888800 
-0.038786933502280435 
0.0012298406114865709 
-0.0084749480910802380 
-0.030729178734297927 
0.044935283919451674 
0 
-0.078700366796923380 
0.00099898925467173730 
0.066811896860599520 
-0.039243907599730590 
-0.013537816331552911 
-0.030321657077283250 
-0.042280427590444904 
0.070392209234715420 
0.071278818631282500 
-0.10016960891949103 
-0.060447362085093840 
-0.010935199938979316 
0.097577278173670320 
-0.047928115646408400 
0.030355148647780307 
-0.018612546908233465 
0.037677697587872885 
0.061682352550543220 
-0.067343144178547700 
0.027341016771488078 
0.077645917229191500 
-0.019882536799404604 
-0.11898254642426330 
-0.036688838395034810 
-0.023014253129162842 
0.0082255548618348530 
-0.020541068976426817 
0.0058335376089955410 
-0.011946676166421328 
-0.011398679322085964 
0.014930384233802930 
0.070494628900107800 
-0.00082024290145623660 
-0.037116849293055726 
-0.078326696070678960 
0.027495412373345570 
-0.048384661372876114 
0.077361315493234650 
-0.073463786762378520 
-0.025018237231294540 
-0.031115710835946553 
0.00035359740305223545 
0.025726870727337780 
0.10371994681557191 
0.082397707763711220 
-0.017649297177374058 
0.0040418347938236640 
0.089442090717987310 
-0.038671899897465355 
0.021843892258633260 
0.043722359350547094 
-0.029492058234301720 
-0.041745499915733380 
-0.011652161038945057 
-0.067914364515220700 
-0.051944034451949790 
-0.056398094359624895 
0.19033671552756810 
-0.019756094263218435 
-0.041456843790226320 
0.082284790460957560 
-0.046637967485944580 
-3.4694469519536140e-18 
-0.049599643422456326 
0.081621460297193790 
-0.014381121368474688 
0.034514065186290910 
0.038722121968865875 
0 
-0.026628955867135314 
0.021289736601279384 
-0.021134234426398134 
-0.026292824587756745 
-0.031868724382289985 
-0.032785371872687380 
0.022549577030414630 
0.0070196293999047910 
0.062987218450556760 
0.044623867747747445 
0.013820182697918912 
0.048807648442770496 
0.0051637103667527380 
-0.070855001769383000 
-0.044083760495617935 
0.066878641988546930 
-0.096522100885751030 
-0.0069648971767697910 
-0.29087569428284726 
-0.033817892339891240 
0.044430620333579120 
0.12384448885888227 
0.037720099645764640 
0.025753696889325568 
0.018633273808200228 
-0.034115982601493476 
0.015913572973625460 
-1.3877787807814457e-17 
-0.33854875666666673 
-0.15531840000893032 
0.0025516291864173500 
0.022317479674453262 
-0.037930946495360230 
-0.052443552416450980 
0.010831361401966045 
0.10968514520801130 
0.056746767849663704 
0.036245070432542130 
0.025209332157496656 
-0.13919671131099645 
-0.054181814797483500 
0.031244153053764230 
-0.033705118739074946 
0.0050762642193825890 
-0.0022842785265693435 
0.035674760914800680 
-0.11699513830521910 
-0.057607950609840995 
0.046360687301403800 
-0.015807372062564558 
-0.024723261195165200 
-0.066811896860599520 
-0.014570692914583705 
-0.0088903286876541430 
-0.045601039891906560 
-0.082089748898533270 
-0.014242269630834300 
0.057203195101434560 
-0.055512142545587080 
0.084144948861650970 
-0.025275855698680818 
-0.0083987718220405800 
0.059551690952827510 
-0.010856706954297177 
0.044188618606891280 
0.0098833050418041000 
0.028641740364219764 
-0.058538801802052950 
-0.057926323401474500 
0.013258023716642964 
-0.016200367211305520 
0.026360511347640718 
-0.018297158656915670 
-0.038318631756399670 
-0.013352798433218455 
-0.031179351200441387 
-0.026874464994065546 
-0.027675928362565987 
-0.058925817243780820 
0.032552683375923694 
-0.049878441208995450 
0.10236517987693264 
0.017699813825231864 
0.20297302575484785 
-0.064445906933407380 
-0.033528320900065580 
-0.051326788803197680 
0.052954604548395210 
-0.00090846842177570850 
0.0069816233766954600 
0.046531130461015695 
0.11030284275608788 
-0.025678304848837957 
-0.016917756238299286 
0.20043569058179844 
0.082510138575393700 
0.16252998583293174 
0.029064513874615977 
0.0063291610715847540 
0.033405948430299766 
-0.0010961206738968263 
-0.032082557030828420 
0.014298228705036884 
-0.025321846842063414 
0 
0.038383760439824710 
0.11185148826616356 
-0.0070192995946400560 
0.11751543835109286 
-0.015891929728204638 
0.083479960789547630 
0.043252297377501595 
0.066811896860599520 
-0.094085470711926560 
-0.020942069270962142 
0.0074533435884328960 
0.070687011989502820 
3.4694469519536140e-18 
-0.062936781731696160 
-0.0064553807852407990 
-0.025611638638310210 
-0.0020849167910149827 
-0.045512373548843130 
-0.061001902793050254 
-0.035550420611639745 
-0.055855517717817900 
-0.013010886036468480 
0.059912490411082944 
-0.065407177403989630 
6.9388939039072280e-18 
0.010956379142781615 
-0.00028774466949855505 
-0.049238250672237326 
-0.015288859714906892 
-0.027216239430954976 
0.031889275957308710 
0.075680989990617760 
0.049544958335871164 
0.012382647672575506 
0.033283575960533954 
0.12649830731652467 
0.015419404205244484 
-0.038929865959815894 
-0.016946963237488167 
0.015980814489988133 
-0.057011304672516860 
0.054900319732293570 
-0.088699504422778670 
-0.066811896860599520 
-0.0062534829727305390 
-0.0072845497898251030 
-0.010760502366922284 
0.034329384364137364 
0.0042847630184875650 
0.080705437882394230 
0.020992784059374230 
0.032925065541164940 
0.0046131986976464450 
-0.066811896860599520 
-0.057407934662555900 
-0.049249979970323360 
-0.042335554782767710 
0.12044109643320594 
-0.12767077857687710 
-0.066811896860599600 
0.0060314550855973875 
0.030914236183098104 
0.035278329277364504 
0.045529606829799630 
0.062297250171031080 
0.035152254332304180 
-0.052061485350682300 
0.048347432048799134 
-0.023293871485579314 
-0.0051206590234293480 
-0.0061549635497507040 
-0.048443165751409180 
0.027706355100891290 
0.061148008065105220 
0.14968315414703992 
-0.039952923886935080 
0.042934731280649900 
-0.041238117646381290 
-0.066811896860599560 
0.069305575182536290 
0.066811896860599520 
0.030647364503115018 
0.10350805251079759 
-0.035826594439243936 
-0.039085442892394370 
-0.066811896860599520 
-0.037626987370223255 
0.0043372690946769150 
0.0054216722279895570 
0.043918081216599930 
-0.087246918835345260 
0.013712481202208793 
0.0092965829317134630 
-0.018974281847558568 
-0.012845968334512220 
0.046505495970897090 
0.015945750142112233 
-0.063728947489161290 
0.0030829493714382428 
0.0010897653388771147 
-0.046931135889715220 
-0.082655657632052680 
0.087527909623346860 
-0.019432158987749420 
-3.4694469519536140e-18 
-0.034313883979948160 
0.040491374438718520 
0.035053525934841700 
0.21142181624465650 
0.061200333809694724 
0.15953728729663566 
-0.0019212578497816851 
-1.7347234759768070e-18 
0.049937430286488250 
0.042855571452153230 
0.039090288383262145 
-0.026422318677534090 
0.13362379372119906 
-0.16031972489655520 
0.13362379372119904 
0.0050047404323470485 
-0.010286428062535567 
-0.0090341058683762120 
-3.4694469519536140e-18 
0.011507592293088904 
-0.064329423004409860 
-0.015007619152697698 
-0.022497210282310675 
-0.00041454988731752780 
0.014660784138087465 
0.013418680569436483 
-0.060393727557520460 
0.042473237664141600 
0.16942336442887354 
0.10797422050261701 
-0.077543018160015600 
0.0095841640167264860 
0.0095841640167264960 
-0.14419889133809022 
0.040839879634624750 
0.0077884199185956840 
0.15786010612684964 
-0.049960201290994564 
0.034635830894211496 
0.00065133788275796400 
-0.066538185800117350 
0.13750277402923720 
0.085146378278262370 
-0.00049463652401003080 
-0.016809408760254756 
-0.043966858334532004 
0.0031124014795616104 
0.012901107093281563 
-0.16645465750300520 
0.033270484187561754 
-0.046535495885150930 
0.012755338905671789 
0.070616150376406600 
0.011444965935654628 
0.084511459484111600 
0.066811896860599520 
1.3877787807814457e-17 
-0.026281271455118844 
0.066811896860599520 
-0.022598421137211062 
0.072640446104517460 
0.021750462751407983 
0.018596884850683178 
0.00034331136444820535 
6.9388939039072280e-18 
-0.081252417133504670 
0.012268524485673290 
0.075785911409900990 
0.0093396107986519760 
0.036982992050588650 
-0.030964102950620763 
-0.027584650227309153 
0 
-0.066811896860599520 
0.046709676786675786 
-0.049325622940631160 
-0.013579073940544880 
0.18211982713927521 
-0.061060482136614080 
0.052105205092998700 
-0.033384036052873700 
-0.013275781963247536 
-0.0055737538171863100 
0.12058357734949514 
-0.053212604367383590 
-0.015928884629681500 
-0.023168547608767930 
-0.010644834607786405 
0 
0.023374576082222230 
0.0057514147239854510 
0.042467024775491496 
0.066811896860599520 
0.023837393002397594 
-0.13357996896634700 
-0.045104900761490180 
0.0083459301316122100 
-0.020078771751959810 
0.0053394925274859970 
0.047335936539938735 
-0.094606030627445520 
0.00027030506926674336 
-0.023307361510773050 
-0.019543876135375150 
0.040347513394212720 
6.9388939039072280e-18 
0.046732116129140510 
-0.010506069370604741 
0.0049555915078569290 
-0.058873437920095126 
0.014107231156131472 
-0.017125576114843038 
0.0090712584287973730 
-0.034145788355786970 
0.066811896860599490 
0.018657734545230398 
0.034330351941114920 
0.045069953263271643 
0.037196394973890280 
0.0042903942627164190 
0.032616871896137330 
0.083612224388236040 
-0.089035238774151100 
0.063866703512047330 
0.060358365551751270 
-0.080601145260816380 
-0.0068878078852555560 
-0.040754123974709350 
0.038787063899003340 
0.066811896860599520 
-1.2143064331837650e-17 
-0.032177967028127544 
0.046393559038241690 
-0.066811896860599520 
-0.036555658066233086 
-0.083802111334696450 
-0.036100136860270186 
-0.016614726922798796 
0.077334262240993810 
-0.031004519971361910 
-0.046838451616173350 
0.066811896860599520 
0.066811896860599520 
0.070734028169342820 
0.0041881182183757870 
-6.9388939039072280e-18 
-0.035383291488144110 
0.090702220371753180 
0.096008713476107650 
0.045284695531324824 
0.066811896860599520 
0.025659928224032826 
-0.12439279330167187 
-0.040770894567730420 
0.0057349739494532970 
-0.022449027073128300 
0.070194716169496050 
0.070057399123429720 
-0.0093213097170213300 
0.038817909619482850 
-0.012177027838711149 
-0.066840697639205910 
0.0055577463847286000 
0.057736316651865590 
0.063744272923150270 
0.042977490197650700 
0.031233576026751430 
0.0083587042968288930 
0.044405978836632950 
-0.060088590189395640 
0.015956814484238354 
0 
-0.033640085033206180 
-0.017237475849852447 
0.095355208875948850 
-0.0040471288392953060 
-0.019279294635540976 
0.11202162872395073 
-0.038016196027575354 
0.096638939481412290 
0.022139033964009070 
0.066811896860599520 
0.016022448134613280 
-0.11128483226101056 
0.14456147712567700 
-0.013453240686184219 
-0.079537437021383680 
-0.011918973826854110 
0.071736528921325620 
0.035212689352071086 
-0.0059661460465848860 
0.098913922282309080 
-0.034679161660787286 
-0.016657564481231740 
-0.0020124315742586513 
0.059537933357471150 
-0.047333048979353996 
0.057691040525391610 
0 
0.023678936638954498 
0.20043569058179860 
0.030911512188808346 
0.066811896860599520 
0.023804265169515050 
0.00064156336333505170 
0.036855785380587520 
0.029436748335229050 
0.066811896860599520 
0.073345173492080780 
0.086517139947596300 
-0.19774471175768370 
0.012644472630660476 
-0.095217473140783730 
-0.047774388219876680 
-0.045183022052505066 
0.026593804707227192 
0.075723589920183730 
0.089351163761844040 
0.00021184113613081142 
0.066811896860599520 
-0.12844423572755803 
0.039409910989364964 
-0.059841767744614370 
-0.014615759738841130 
-0.023946037652177295 
-0.020077987237776040 
0.023676332281354417 
-0.0076876111856294600 
-0.019995102477339335 
-0.022120696712315684 
-0.0070868699678329260 
-0.066811896860599520 
-0.051046881203722220 
0.089014228672205070 
0.070950568790275280 
0.00080136318498527820 
-0.0055212978922951200 
0.045220398401044870 
-0.034782552484208030 
-0.0040801284837950930 
-0.028814024200210172 
0.10410192651636076 
0 
0.028112760807825498 
-0.069096175387168790 
0.0023547737669141930 
-0.035662702516314405 
-0.054372385094241485 
0.0096626495818735410 
-0.046994045716112950 
0.013605359896510755 
-0.094554821395078970 
-0.011883719723677532 
-0.037241058373535340 
-0.031997703917853074 
-0.047983782788163550 
-0.037728699208536990 
-0.0075143963484962160 
-0.066811896860599520 
-0.066811896860599520 
-0.096007487282195200 
0.033936207316462670 
-0.049815398109972514 
-0.0026173133966431980 
-0.066811896860599520 
0.025920839278165287 
-0.011400830119360978 
0.049038492071058426 
0.00061784205050507830 
0.021004259808888124 
-0.010529214911733000 
0.016595443285862770 
0.0056782962611157610 
-0.039312476393588314 
0.013125440564956920 
0.0074014552896308520 
0.062381777342804540 
0.062656181781737620 
0.047416096357540180 
0.0043903468394312075 
-0.0029471341172953120 
0.0028446255774911080 
-0.066617027184821460 
-0.0031635274871931276 
0.041294680683968460 
0.014794918298837141 
0.018958217299743414 
0.075575763316692220 
-0.0093966363186365390 
0.0077023336628747490 
-0.029018590772857542 
-0.015499167071476232 
0.11001782401216488 
0.12221882429637920 
0 
-0.030756071939434580 
-6.9388939039072280e-18 
-0.066811896860599520 
0 
0.44861751985323410 
-0.066811896860599520 
-0.39504955441063094 
-0.026747910210545074 
-0.022563618386368695 
0.043105748254967840 
-0.079812751035438880 
0.022589165888473255 
0.061668686023097790 
-0.022204009213611120 
-0.034958847168785855 
0.047293249325016160 
0.019461095849190910 
-0.031151699908806950 
-0.011865703001587713 
-0.011814644558256203 
-0.12150579963410933 
-0.026640282717017787 
-0.012313311011756308 
0.060554158067651714 
-0.021223815649569242 
0.053841415541162375 
-0.023047939555759508 
-0.045670319547178484 
0.074068501850513380 
-0.023112607901439580 
-0.050488828927413310 
-0.0088782831137721420 
-0.028368373703581782 
-0.0020518665513704955 
0.085277880109655000 
0.048514738203683794 
0 
0.047421369322350570 
0.065864859038252100 
-0.076851762385926360 
0.030601830761272722 
-0.0047051443949821810 
-0.00029692097568834000 
0.022404254038649964 
-0.011001694391649820 
-0.036873916247811465 
-0.0074692381390363240 
-0.025568070135120640 
0.023874038848311407 
3.4694469519536140e-18 
-0.033798109964275740 
0.056216480547936440 
0.077099728013974950 
-0.059431639369494100 
-0.023564085813062817 
-0.0083873192521749860 
0.013815483025060929 
-0.013485310054556398 
-0.038275402606193866 
-0.010389091546539612 
0.11726898477719355 
-0.066811896860599490 
0.065592733515759400 
-0.095242769658480960 
-0.055939116499886810 
-0.027753726728370766 
-0.038331915016995344 
0.031781292397377630 
-0.036164532357484490 
-0.096927638071001050 
0.0064443311064948090 
0.022356059779475024 
-3.4694469519536140e-18 
0.025913566946546870 
0.047858777197875096 
-0.050520573154800796 
-5.0642242708484870e-05 
-0.081991440242445630 
0.0090693994850878020 
0.014021381318330157 
0.012655736085458166 
0.023328358870641254 
0.13138717019489934 
-0.046582232859736310 
0.054956338996902845 
0.013060275349902258 
0.031325913940708710 
0.10513905417444389 
0.12338982861263348 
-0.066811896860599520 
0.026659794443824040 
0.029551369592146583 
-0.017649297177374060 
-0.011541059947512698 
-0.046752878517307306 
-0.017649297177374060 
-0.070366397818879610 
0.072759824869700940 
0.034406651252493490 
-0.0056072808506411330 
0.12706368791256775 
-0.014493896011284363 
-0.041793027976498680 
0.066754879551376520 
-0.00014515474819831265 
0.021315433874152200 
-0.064419157198667170 
0.019891531751880548 
-0.031398976213229825 
-0.022621149433363002 
0 
0.010836563242597862 
0.11867924908290926 
-0.031793848959357954 
-0.0013223965761511130 
-0.082079892844095070 
-0.031730029361279970 
-0.062567190887393990 
0.076478355547635100 
0.21337682685346337 
0.0091573109666362240 
-0.066811896860599520 
-0.073464882915509950 
0.027948690371693286 
0.029052511353466870 
0.040567356793844954 
-0.028787627861810250 
0.098751200657889960 
-0.12550931021481510 
0.032419484976033630 
0.061222986873206084 
-0.074448223902166590 
0.074802304105593600 
-0.10880326923775241 
0.093091295853725460 
0.11054826036783685 
0.0052500694980102800 
0.046853156438281710 
-0.13783545007338770 
0.0012318863073424455 
-0.067129891548076510 
0.016074164699727046 
0.0020184976951028930 
0.035743552152205070 
-0.066811896860599520 
0.13362379372119904 
0.066811896860599520 
0.14703073422969610 
0.11440802166648267 
-0.0057658610001940440 
0.089671464207163350 
0.19502852735528320 
0.16389706889505037 
-0.12990422354443298 
-0.037608093378335480 
-0.011324752189116657 
-0.037275252231266515 
0.0049734676231051600 
0.066811896860599460 
0.066811896860599670 
0.070427632594069200 
-0.081922704269552310 
0.21648944028301106 
0.075175020416233780 
0.047921953297905294 
0.049420151380236920 
0.038411653188181430 
-0.066811896860599520 
-0.0022734008404853860 
0.011296877351416733 
-0.032340060961350540 
-0.10475435696246932 
0.042347060986545740 
0.041830915528537170 
0.0071562566449409690 
0 
0.084097635321987250 
0.073023007831674050 
0.075113600692586660 
-0.22956442649645490 
0.0096952911649400670 
-0.13362379372119910 
0.0098993429786437080 
-0.035933930608228400 
0.091283585147555050 
0.013820604392128169 
0.082763292174006880 
-0.034946204324770600 
0.055401896779737100 
-0.064797215341753880 
-0.031063637259489440 
0.012009693569800880 
-0.0055731965636697560 
-0.066811896860599520 
0.056631306146420740 
0.087864639682476720 
-0.018775735365499750 
0.13364030427940160 
0.034016511048149840 
0.00061056261785006810 
0.066811896860599520 
0.046185784450949440 
-0.076446643173898180 
-0.042623384218709440 
0.066811896860599520 
-0.071511178685806930 
-0.092515887226399020 
0.22397765858480567 
0.066811896860599520 
0.095870590406484320 
-0.066811896860599520 
0.17196394464594156 
0.10592883542014676 
0.014409172172372453 
-0.0034106822898484410 
-0.011197044868965089 
0.022583677584006650 
0.012187289605081093 
0.056824055426670690 
-0.066744663487529250 
-0.10430952538433698 
-0.0084756508042641440 
-0.074292133311424770 
-0.045381656158924270 
0.056203190807708955 
-0.022533636247591686 
0.016136735071981052 
-0.11104309704608664 
0.053339536386454980 
-0.15364532877508577 
-0.079933936387679120 
0.014524678023398710 
0.039732691906427470 
-0.021591498459554645 
0.065746135963875810 
0.066811896860599520 
0.041285692664173140 
-0.049614141604904930 
0 
0.010522365380394335 
0.030944732435830900 
-0.035394170266008000 
0.018631976070146244 
0.021067281479491433 
0.0068154251967460640 
-0.12661048521233380 
0.062297250171031090 
-0.080916321721249390 
-0.074336871673085130 
-0.042163073368640460 
-0.044509258855819920 
0.048725403317368870 
-0.0093443971552276900 
-0.041346859432272426 
-0.018042107174083050 
-0.061232264580500120 
0.075507525385749090 
0.024997815498786360 
0.066811896860599520 
0.15082856954747054 
-0.057156922736285434 
-0.038412132925251680 
0.046269728595676525 
-0.017289686565510463 
0.0039221313087432885 
-0.023531850081521307 
0.022262535481708950 
0.091081732829305150 
0.096008713476107680 
0.045284695531324840 
-0.012047067139134763 
0.051983277388885270 
0.0066180754869596440 
-0.12107138063167291 
-0.0025986736302789104 
-0.10508187792732908 
-0.13591953759128622 
0.044749401696294835 
0.055298259490250230 
0.0063668649122118830 
0.030774472478843757 
0.087773341285893400 
-0.046976406224193780 
0.066811896860599520 
-0.0049246665997734740 
0.0095556313845643150 
0.082397707763711140 
0.042855837147402646 
0.0093187746682779210 
0.050703541490493075 
0.057273492342670620 
0.048620437991850965 
-0.065686868763562420 
-0.067590656983727040 
-0.023386548864373370 
6.9388939039072280e-18 
0.070834323833238600 
0.015990013063427413 
0.053680113262293280 
-0.13147598225106483 
0.0090766442466314000 
-0.0037289510054655510 
0.033812101219999340 
-0.093165475646423370 
0.066811896860599520 
-0.042849115278627700 
-0.14267721613878315 
0.033569815633279425 
-0.021313425104777500 
-0.025492785632570986 
-0.034474812726856985 
0.014467648684158629 
-0.11085866887665982 
0.024120846895243640 
-0.050450799110395650 
0.026543127371859418 
0.020245885892781562 
0.055295309913531190 
-0.14037475348678466 
-0.065894194109962880 
0.021461125131716562 
0.057388836441823805 
0.035993826033379300 
-0.021862636135483770 
-0.12356163142163826 
-0.048448783037287960 
-0.034356251623822370 
0.022632392711306216 
-0.018537279171246110 
-0.040152102416775480 
0.011898617186615080 
-0.17276619627143686 
-0.0059904709340349435 
0.043120518148813020 
-0.041201337376379585 
-0.00082280770265602960 
0.038175596712437870 
0.0011124549215879346 
-0.013448386457173474 
-0.0046631583118988730 
-0.0058441128540993680 
0.032753664162866090 
0.12651558909451660 
-0.078870265575702910 
0.010637338540014439 
-0.020056238479644422 
0.017786084776361896 
-0.066549695775061340 
0.045966431116966840 
-0.0069662586482942650 
-0.0085712395384260190 
-0.046761542136469780 
-0.010252946539153174 
0.17859596566416658 
-0.069984978158377470 
-0.011233182428440975 
-0.047335235361870600 
-0.13917495934391710 
-0.17444127253464180 
0.038913207078473164 
-0.096620742488776280 
-0.047870278494952180 
-0.0033182657490730054 
-0.067587639043750180 
0.067280122087766460 
-0.086639830814550260 
-0.15389771586927640 
0.056313249594519490 
-0.048887319937658893 
-0.018681638575120552 
0.016795167131875306 
0.024173794390024764 
0.027288485421489540 
-0.074462566824436300 
-0.017684817688622345 
0.030812660598899762 
-0.030911551168742685 
-0.076540007824239520 
0.016528600662546100 
-0.018315635293928947 
0.080786169374312340 
-0.047307986556248696 
0.016951710943626724 
0.060134803714469050 
-0.078817976628758040 
0.10187173631139694 
0.074377948900769790 
-0.084670473496581540 
0.048883987105895480 
-0.078402528236174150 
0.059918841435992620 
-0.013388337808869331 
-0.10021784529089925 
0.042872454712152010 
0.055704334006061215 
-0.0065083549731822130 
0.097553004826092940 
-0.19775138299973570 
0.0046302861757435610 
0 
-0.034118245594159560 
-0.042339241078731764 
-0.043066785083452450 
0.031440770968686305 
0.033405948430299766 
0.048736012482407190 
-0.11524842574725509 
-0.049456585909176440 
-0.087372739697671860 
0 
0.039210630445087230 
0.081629179001641170 
0.078243960920217650 
-0.066080971558667460 
0.072563311584584960 
-0.0058924037983477920 
0.18287480094775935 
6.9388939039072280e-18 
0.021421148250811244 
-0.079912533241127030 
0.022489184943256982 
-0.0058787302032197730 
0.014189507690868228 
-0.0067864382798986950 
-0.0053223866605831135 
-0.017837170726867156 
-0.010949362841611578 
-0.027339821870755496 
0.025123462661514002 
-0.023080252556758024 
0.067566964119291710 
0.0026790490643972967 
0.057019080697292470 
-0.13056494288218448 
0 
0.040699457187590550 
-0.010970837428721772 
-0.037094177429526010 
0.050528405120600100 
0.076493115185515660 
0.18861211603746910 
-0.15522306276039038 
-0.045936806919091540 
-0.011955557123244417 
0 
-0.0062745765147586285 
0.043322538273732086 
-0.0014748941166789174 
-0.015182310345420382 
-0.0035007400589030860 
-0.011841112793069767 
-0.063111988891436130 
-0.021783000023512255 
0.0017432810933658030 
-0.091197029124925800 
-0.026948512609063110 
-0.0093562185797360500 
0.0013588581868986840 
-0.020170942015430918 
-0.054970758636429290 
0.0044729006523106865 
-0.011901244659070982 
0.015411381709553524 
0.058558726110072490 
-0.023171019005777622 
0.078868030834699900 
-0.033369055799749386 
0.0064445143744246800 
-0.015362130826274986 
0.12737313104335040 
0.049753817593142735 
0.056182176691495354 
0.029759847684645170 
-0.047501325115633396 
-0.027555053289710207 
-0.040234022881846870 
0.0010070915116644926 
0.027069533765003170 
-0.30960546662582700 
0.033931643735401196 
0.047639615652877330 
0.12552644317897957 
-0.098926974005572400 
0.089556686241304140 
0.13110725015291110 
-0.019635121794510220 
-0.15352828822211517 
-0.060954708155474210 
-0.060532830351782765 
0 
-0.048055604807842170 
0.053133696196567130 
-0.022780036875759586 
-0.13248424777796342 
-0.013100636380527513 
0.053951030930985300 
0 
0.066811896860599520 
-0.017665994616470600 
0.091381302125006470 
0.040590389982111120 
-0.023816409816783905 
0.085289762954515350 
0.13120422004313112 
-0.054487485114619885 
-0.023144720042098846 
-0.024978955708157910 
-0.070329039761382130 
-0.037267987542755330 
0 
-0.040341252951418674 
-0.0096672399433303280 
0 
0.068219132073823400 
-0.00025278461546398160 
0.0099068275346438380 
0.0015752579503293595 
-0.063057001643003430 
0.0032542337000368940 
-0.051246321876362650 
-0.059632767790430960 
-0.059829243033770324 
-0.051246868383701016 
-0.028746670045506290 
-0.12709098279976067 
0.035285226105551855 
-0.094185711169448970 
0.010724745204654539 
0.078756326122981020 
-0.020071735861898810 
0.021140111191349915 
-0.050197517182695290 
-0.035503204680019690 
-0.036162078706310316 
0.069922508090741240 
-0.054120404386639426 
0.076904852109477420 
0.013742825932934969 
0.0022131459275134893 
-0.024612624911819710 
0.034728715708683720 
-0.19720910941784130 
-0.0098481652936528060 
-0.010334412388150693 
-0.020776324251004990 
0.026647305693187694 
0.022437380633213173 
0.0048156621562261415 
0.031206667872201097 
-0.12059744112262330 
-0.044843868162841080 
-0.0089949307607959490 
-0.12410094750294977 
0.040927403525152120 
-0.023188085508545297 
-0.066811896860599520 
-0.044541263910016456 
0.34364314899562980 
-0.012022666961012717 
-0.030357896146882840 
0.027268657933948438 
-0.028082896325562700 
0.12127916885234476 
0.011707311555510604 
-0.13474867899847454 
0.11214389283260104 
0.035484040700696260 
-0.0075921429388070465 
0.0032762979578414946 
0.32396809842710750 
-0.044107752824332394 
0.085647620131771340 
0.13828732757987894 
0.024072969060023538 
-0.12656199461674794 
0.0068732573283259380 
0.066811896860599520 
0.021859526899000427 
0.13064719989071938 
0.10276760302919502 
0.071210474677421730 
-4.6827029325359040e-06 
0.41404153958792440 
-0.19475681003727036 
-0.068250169191692480 
-0.081587593791420470 
0.057478172614247220 
0.0044157651430784200 
-0.19136723318281418 
0.094728576946118980 
0.076530060644953740 
-0.020772075425338085 
0.030627025163226610 
0.0030697508342880935 
-0.0083986355837793130 
-0.015804357610387842 
0.025647140877700165 
0.014774407731128100 
-0.019582630083725672 
0.0034709060642443713 
0.18498490535635825 
0.014817698544422239 
0.15982055955073310 
-0.017209491519206997 
0.018951653606760634 
0.065703299114911060 
-0.089732557420568530 
-0.20677800482380287 
0.10613037602250670 
-0.076882944733115560 
0.046064412138822610 
-0.057593195958390380 
0.038302215965580600 
0.069799209418242930 
0.011497008228819421 
0.041835720086577245 
0.056796477023521230 
0.066811896860599480 
-0.091366599349664110 
0.023589001054254117 
-0.091941642901282580 
0.0050017371187957620 
-0.0084383650556428750 
-0.10394731859051135 
-0.0046253663568993075 
0.024118433840200532 
0.13179095393774298 
-0.012928034448623825 
0.040747622625849134 
-0.0018642636982160996 
0.072429015647617680 
-0.031263456688711506 
-0.015525011050634979 
0.058101802761257655 
-0.053983213192716760 
0.026474947739379594 
-0.082250145249788130 
-0.057281436103077340 
-0.025485927540472140 
0.14696029699330100 
0.15261990242627570 
-0.053658888825821774 
-0.010574011739041190 
0.0083963135573784970 
-0.028836481902536730 
0.037870904210350075 
0.032838043661828380 
0.020623496630707380 
0.098715156859030510 
-0.039080633705392824 
0.031805085685461970 
-0.010275379393969589 
0.010133283880408222 
-0.035878014620170350 
-0.017889652059851227 
-0.025115534170978452 
-0.021625149804731878 
0.065703299114911050 
-0.032947452228181774 
-0.039119330797712830 
0.014038000096552365 
0.11108924761191646 
-0.0032525280300771306 
0.085499817706716750 
0.00069613060985663530 
0.049631558766573890 
0.031365069408942695 
0.028276404120243702 
0.043163492071608560 
-0.056062570963744930 
-0.050316161900734350 
0.0091740328187963100 
-0.048462101861869420 
-0.047045597223249230 
-0.023519188005792616 
-0.011978029856598457 
-0.091061028679996820 
0.043082327193956650 
-0.057431138947911055 
-0.046639162843752996 
-0.060031381405118434 
-0.070135085776568320 
0 
0.058323547115697600 
-0.032438529139345170 
0.00070281001231420790 
-0.011613973306009148 
-0.13583995331701770 
0.013294073097074670 
0.21930578323702513 
-0.29784808617319963 
0.078954254269240170 
-0.077287724554197160 
0.36041611060922957 
0.042906869589304630 
-0.015219167578103118 
-0.078438617545657620 
-0.022270630959433440 
0.061086168239141460 
-0.025742548457100035 
-0.085379130839551200 
0.12006743695385068 
-0.037819303563324120 
0.059342541418281346 
-0.019453232846163376 
0.085997960706676380 
-0.035602761305251440 
0.072081891930143300 
-0.061416194106080485 
0.0044867057637456220 
-0.079563938997822440 
0.044153867698318770 
-0.11192793785802023 
-0.029025192724852916 
0.094374358591109930 
0.057677054230751350 
-0.033641097277264950 
0.10481422118166121 
-0.064647100612213140 
0 
-0.064650280944052730 
-0.037752021871129760 
-0.063516172433239360 
-0.034976249962690255 
0.061936141409037325 
0.011423637651256598 
-0.021591498459554652 
-0.055795874425981030 
-0.0064905735892670340 
0.10416335984252041 
0.088022479206579600 
0.060012266403113580 
0.077272890353328600 
0.040964754529969886 
-0.097570682528939010 
0.026549179921123905 
0.17245529891645492 
0.037622741122605700 
0.021198576763740370 
0.13130043031095054 
0.10629283656711608 
0.0025506649314997573 
0.028097922989898612 
0.056773174641873175 
0.017779006940131913 
0.074609649057820910 
0.0059361143739452005 
-0.14614898181989913 
0.14394033044309104 
0.067005826907754350 
0.14265406757304153 
0.051029648578259610 
0.079611886714089540 
-0.0076506699638367705 
0.011322010357190937 
0.062160624445370500 
-0.0099285679140181710 
0.035100191902534030 
-0.045023083570362710 
-0.060796334560214770 
0.054530827619865270 
-0.015159200722475317 
-0.030152604550061400 
0.0050046153865500470 
-0.034975580799002060 
0.023821670013190757 
-0.026338982308512370 
-0.0099417767934598200 
-0.049612491525109575 
0.022679636395487800 
0.069360895355643270 
-0.010518121451381092 
0.18926667329873176 
0.0053626063365617830 
-0.072333194752894600 
0.0091550877704750180 
0.0047470484845947595 
0.056395710449260096 
0 
-0.032347928014149160 
0.014307867706829215 
0.012387292530175220 
-0.079352380114488990 
0.045881001637267210 
-0.050699178017708760 
0.061204616009958634 
0.025578349485016950 
0.058824568186353150 
0.035110375775977160 
0.045507385642913560 
0.10560117083846214 
0.053619948257701310 
0.010083573870757806 
-0.081707103493784130 
0.037473376838444210 
-0.014789831416151901 
-0.23299198711690183 
0.069521847786164460 
-0.043512241767932730 
-0.24002006984843900 
0.022382915490279556 
-0.036422827178565300 
0.029083197652062550 
0 
0.0055774077340755820 
-0.11104116313287600 
0.023017158530580208 
-0.13362379372119898 
-0.067032793931788960 
-0.30057399988009100 
-0.042670660957602320 
-0.046253365861022314 
0.024634310866782215 
-0.12888025203545259 
-0.024938087882827958 
0.013510052333796752 
0.043194223214575576 
-0.047547560411730500 
-0.37936710660345450 
0.0060612186706064440 
0.092921751016726780 
0.10178590966692869 
-0.12408929903964164 
0.13528692382957974 
-0.034145874293870170 
0.024656782198644808 
-0.031853763381285496 
0.041880610593630030 
-0.075428050850557950 
-0.066331271175851790 
-0.052008150369218470 
0.26724758744239820 
0.045376695958914005 
-0.066811896860599520 
-0.088548697780299580 
-0.0094547205548398160 
-0.051333464422698406 
-0.024791378538236576 
-0.065596226949461610 
-0.072324034127537270 
0.015530181752298356 
-0.066811896860599520 
0.027532917640134588 
0.091599771052905260 
0.019800997805944880 
0.076493115185515740 
-0.011455550758648268 
-0.12234950090417909 
-0.12001843382468813 
-0.056788317841773890 
-0.0028411642986678437 
-0.066811896860599520 
-0.013191948602898212 
0.044277350751316884 
-0.066811896860599520 
-0.0062899377834102110 
0.036961062738676860 
-0.050391901158923330 
0.059204324685971740 
0.096662599836267790 
0.00037167043092391540 
0.031305456384104806 
-0.074465740143036390 
0.056570054070913825 
0.025239177765337222 
0.021885252389370603 
-0.012244133462111912 
-0.080646051877338570 
0.084734962479990640 
0.047706244034440780 
-0.090727485531105950 
0.040031703405867080 
0.074801657157461540 
-0.066811896860599520 
0.078457380706735610 
-0.029726756257639570 
0.0020976864259900792 
-0.010502025543861352 
0.020178580849512400 
0.034594713654412884 
-0.073134965980947400 
-0.10654091441124716 
-0.071463169275828660 
-0.050923866162080940 
0.017662236717454460 
-0.11951720093051330 
0 
-0.058273560302240460 
0.031102454309868930 
-0.20289418430713570 
0.13270139886771412 
0.054900319732293576 
0.059204140381425930 
-0.057630466701353090 
0.066811896860599520 
-0.20171937088625690 
3.4694469519536140e-18 
0.090703804571453400 
0.058885935595718940 
0 
-0.063792981060022790 
-0.010179628425289400 
0.090188800881458030 
0.010006625501999853 
0.018900513799169818 
0.058017035861285655 
-0.099984422733982730 
0.031111214196825165 
0.079316782513034400 
0.0074239651643924490 
0.020519188433580160 
-0.055641633105713530 
-0.033576830374698820 
-0.011370835414621250 
-0.051631434898048110 
-0.037473715677615926 
-0.063488322017319850 
0.034528779574229010 
0.0070689438070227160 
-0.0041441520045307840 
0.057933140643218466 
-0.080145869263686080 
0.016393424395369480 
0.063943338055641520 
-0.041881266139598470 
-0.016403967580293850 
-0.0022525831928101250 
-0.0083306964335068600 
0.046235245041800250 
0.066811896860599600 
-0.041814081361813110 
-0.071671814222508660 
-0.023710032512250700 
0.030510214750202363 
0.044678886077773730 
-0.021527201329274638 
-0.10391569630504785 
0.034438579000663376 
0.094551512364911470 
-0.037825967327850735 
0.030520340065792306 
-0.040270579013871880 
-0.0098989340762898000 
-0.032217183206186620 
0.024133155227207550 
-0.022214963616740982 
0.033934865642026610 
-0.027088634593910657 
0.0040178191405957030 
-0.20928636349015725 
-0.036160657334029254 
0.018399843973721065 
0.064928116075839090 
-0.066811896860599520 
-0.035453142715597080 
-0.025175864395463158 
0.19114155474827563 
-0.078457710885000920 
0.037577502548020700 
0.013651464435766050 
-0.028764132494452734 
0.071068721457860210 
0 
0.037205005503679445 
-0.024085295701625983 
0.045332012577128310 
0.0082592801133813310 
-0.19932451684026630 
-0.14397065343327287 
-0.0022842785265693400 
0.036846350133993955 
-0.044358839438848730 
0.085445170668799780 
-0.088291781144070560 
0.049829042356298814 
-0.050189411484841656 
-0.066811896860599520 
0.097586369339443240 
0.023540663745633340 
-0.0017825208831913370 
0.066811896860599520 
-0.051789829140577820 
-0.011372748870320830 
0.066811896860599520 
0.048734069711768300 
0.042934832030921764 
0.042764696632719880 
0.094923725323813420 
0.022608935366464137 
0.094308386084252300 
0.10865271101767232 
-0.066811896860599520 
0.037140239287321575 
0.087431944193323370 
-0.066811896860599520 
-0.066811896860599590 
-0.069096175387168900 
0.0021616159165465873 
0.023540663745633360 
0.066811896860599520 
-0.031244332513753095 
0.049603661202468170 
-0.075386372877355750 
0.066811896860599520 
-0.10391198340682473 
0.20043569058179840 
0.013887467105082625 
0.069817713892186910 
0.11198683222872116 
0.0042717491575730780 
0.0057175777192454810 
0.091930879065859350 
-0.025626782446922305 
0.067255282405944870 
-0.14691061819933307 
-0.033767502077798380 
0.032616502014904854 
-0.070508860815613210 
-0.048985195778800616 
-0.0037706954825169163 
0.022859044151528993 
-0.020134930391385662 
0.015759673160049750 
0.13908464307434124 
0.016487278826989905 
0 
0.12142750235463128 
-0.049993670378877836 
0.060025121826253594 
0.096219215421489530 
-0.10081394218824129 
-0.014688104053384545 
0.026911852622426420 
0.14266461678278167 
-0.025032967092262500 
0.033812491641068414 
-0.13356741240130920 
0.084288570711651100 
-0.066811896860599520 
0.024658891524220843 
-0.047774998295625620 
-0.0062812313792996520 
-0.020022288887050956 
-0.022606480056260020 
0.0031449663313666580 
0.12181326827573079 
0.014894375269540695 
-0.012371724695353688 
0.035264706664123124 
-0.11378872698067061 
0.091000068038433750 
0.045878123640452020 
0.15433962903401980 
0.047324992649599704 
-0.077455542647797800 
-0.028248772108375248 
-0.070672567976938120 
-0.058737833497701786 
-0.11956907268047254 
-0.011859229711776432 
-0.018531429417076917 
0.032959597271699160 
0.031577014064887910 
0.10021784529089930 
0.0048600888249107615 
-0.048916478707708905 
0.062975822689978260 
0.060151474125630544 
0.055331477377050550 
0.028435794562239766 
0.066811896860599520 
-0.060279085939161150 
0.085074659377119960 
-0.029393953356306940 
-0.014461497432323547 
-0.012682055993949050 
0.066811896860599520 
0.11251936504622945 
0.13313051215151245 
0.034406651252493490 
0.054385696982941470 
0.076194578370377260 
-0.013789248400216926 
0.040530084985404970 
0.066811896860599520 
0.027502953454287615 
0.0027099509255649240 
-0.017337095757882146 
0.070002512345284150 
-0.010722779447971526 
-0.00080486832615951300 
0.021985585849734090 
0.037888788953384725 
-0.010389920035449010 
0.0039797305265655800 
0.088058180400713390 
-0.049353312980910110 
0.032616502014904840 
-0.043168999211572700 
0.11053425621114680 
0.010635687499265228 
-0.024908849925642483 
-0.022519998603018825 
0.017865616044787005 
0.024549712236742734 
-0.047768742698068856 
0.00075979427178537760 
-0.096175838802085330 
-0.0087695655098530170 
0.0043271089796766400 
-0.043874401518501210 
-0.028893466842788804 
0.033367922119854880 
0.083105709044897200 
-0.026421493391692096 
0.025879734078093770 
0.054298294889827310 
0.025455966636696716 
0.045001754181916376 
0.025549897413753530 
0.0051320302794050235 
-0.0093910032029026770 
-0.048100807900749366 
-0.018064489034604340 
-0.041604191610407010 
0.092483160322871970 
-0.066811896860599520 
-0.020286040406998575 
0 
0.0057933361226237615 
-0.033405948430299760 
0.12432311010065551 
0.072930934384132460 
0.033803080509935586 
-0.018861259821256840 
0.11300814538188098 
0.0036741590926913420 
0.029117915141141580 
0.061093955588024634 
0.025920839278165287 
0.13184989978750739 
-0.23741214217212472 
0 
-0.11984065273299176 
0.040432061749651110 
-0.095737487954524570 
0.065989659873285740 
-0.015179543381846287 
0.060786250207017050 
-0.048622455925995255 
0.031696091352825920 
-0.011694063799627187 
0.066615921243884680 
0.056216480547936440 
-0.096098712004563870 
0.029481852305087180 
0.057785233954701910 
-0.068321862837141020 
0.027462220490403998 
-0.0068447608740978130 
-0.041658110269896300 
0.0034795249626352327 
0.016859673983542760 
-0.13362379372119904 
-0.0099774576379562800 
0.062414904087135535 
-0.088674756216956900 
-0.029038055362170110 
-0.062955448300413410 
0.022002974677776344 
0.049570931589509940 
0.035055992126650110 
0.039616789985657460 
0.044474913892608846 
-0.038580241449358385 
-0.011895644450506452 
-0.00043272694836889115 
0.016831797157961680 
-0.082644859810933750 
-0.053880976753282434 
0.098709769903109580 
0.026934406277877597 
-0.019916516526543523 
0.028357621716787310 
-0.010099957413697682 
-0.19068766894109976 
0.14690014754909925 
0.0046358561215168010 
-0.056288472728024896 
0.0010020997514273498 
-0.058277142444326746 
0.013564037249402146 
0.028574825093832810 
0.025086799216538738 
0.066811896860599520 
0.15023033091142052 
-0.067210814934961730 
-0.0089539856392210960 
-0.071991111120906450 
0.00051749995479287300 
0.0078839577451175010 
-0.053325705315327420 
0.026217659022350450 
0.11319997211517384 
-0.066811896860599520 
-0.051250623411760540 
-0.0020298742302652228 
-0.082303149849890370 
-0.0052424273444883415 
0.040976301264640210 
-0.053747391806806225 
-0.012442433996899998 
-0.45574717916438057 
-0.056794188947104210 
0.12594131357106010 
0.020374398145264424 
-0.013367101761050541 
0.14693126450571026 
-0.052182200211452756 
0.011618220666625956 
-0.16406100526352574 
0.051864610787626050 
-0.024336548945211850 
0.10110837443042625 
-0.019384567111969578 
0.16327040104843550 
-0.066811896860599520 
0.13253078499072307 
-0.034728345006450806 
0.14617942029257736 
0.071056602833805080 
0.035096799512897870 
0.050350373789334726 
-0.056408379093935840 
0.031200423710949856 
-0.0015479484080418021 
