solver_type L2R_L1LOSS_SVR_DUAL
nr_class 2
nr_feature 1698
bias -1.0000000000000000
w
-0.11201005761981923 
0.070878708323793460 
0.066362349755841060 
-0.019492438018485490 
-0.10892127597082706 
0.021082208469057923 
-0.054547929050508480 
0.091359074230134650 
0.019974538150964960 
-0.037505851073600870 
-0.076325178038238050 
-0.14651439352908050 
0.055563077125797440 
-0.014695640629319988 
0.13425715646612865 
0.10125840307965230 
-0.10385851247860756 
-0.017973550187416917 
-0.013869769826171094 
-0.19414344465053754 
-0.053490878730402120 
0.20020780016459663 
-0.036691930987828660 
-0.051935727450510880 
0.0016758425289134828 
0.023457926722957424 
-0.098434912401916060 
0.061695806453078116 
-0.17314004263226204 
0.064365969945644340 
0.065390331707793280 
-0.024634775152146127 
0.12488393099371707 
0.0039937858912090880 
-0.10372687257662247 
0.0037219241013331404 
0.012006894280375142 
0.12422555204695558 
0.14862308898413737 
-0.0083713460561463720 
-0.16196485449775172 
0.10035278034679634 
0.026721062036786546 
0.12284558812638206 
-0.034487649557578510 
-0.30253196664004530 
0.046384435041206090 
-0.049920340358522700 
-0.044888581668495240 
-0.085767473263910570 
0.066106708398922060 
0.17869980448708130 
0.19638454491794924 
0.16549959914345475 
0.16511382489352200 
-0.17475250970752562 
0.056828628457397030 
0.00091859305247402180 
0.086478277240140980 
0.10181543802202837 
-0.036896292430289800 
0.045369062193501220 
0.086781062487863400 
0.027824070538807020 
0.089325313879772260 
0.18359741745802569 
-0.015119636758116223 
-0.13528901826413350 
-0.019533392554620065 
-0.00010023171202963497 
0.056808736487615946 
-0.049176499072774514 
0.23985407849242735 
-0.084393867827836350 
0.017325751723339066 
0.10163752772712988 
0.079500732977060440 
0.037115899405118634 
-0.0084585872504203220 
0.13795570946485203 
-0.012284830567101931 
-0.0032820884995865864 
-0.023292781875345050 
0.032907293639344956 
0.023507604044190476 
0.049097353601249190 
-0.093518970271191920 
-0.045101041649271124 
0.075520531028012370 
0.10704577984873993 
-0.077333144386445410 
0.11023281098785890 
0.30337401267432360 
0.0029947696199494470 
0.069357505653014160 
-0.098883322130628860 
-0.013688297186510514 
0.098025851735872220 
-0.023367313415570645 
-0.081430247928890000 
0.11835873366390418 
0.058154749732898865 
0.23703926685844284 
0.14520035838292517 
0.044316765750949250 
-0.10026693869829734 
-0.056567232174057396 
-0.034818749126790760 
0.069292148238652350 
0.011061652699201199 
0.068890073788408960 
0.10965891075124595 
0.055900419678382430 
-0.0047117722559742760 
-0.039133821260394865 
-0.10073136213966138 
0.14232119737852960 
0.10669642490304805 
-0.085337093322046130 
0.038535332056353000 
-0.081629370308294730 
0.026980454379229267 
0.058321574957568870 
0.028682530235115870 
0.022770148577758980 
0.0046479955426099460 
0.045372555789840290 
-0.086186356842517850 
0.091917929469935160 
0.0063922541194091430 
-0.073893718861791860 
0.021577590200064625 
0.21671687464073672 
0.18898290568877868 
0.071146668898828850 
-0.12214746857669967 
-0.11494202932097032 
0.053024389916548460 
0.0088190959224503200 
-0.10425272125320730 
-0.014641417165278421 
0.038255261212488830 
0.10603149112735324 
0.018870429528733697 
-0.024728375775134766 
-0.10765015903799138 
0.049403221638737460 
0.11613792795166776 
0.026144498528275592 
0.11239430972804296 
0.055527784739245200 
0.10537014709438668 
0.072016732629401140 
0.034468310437343180 
0.093015725774078140 
0.095469387049564120 
0.039732368217057897 
0.020416266288783222 
0.022156892816459734 
0.015001717161131790 
0.17255533469350673 
0.16482895980123016 
0.0081299539322984250 
0.10408337863181692 
-0.013931203088805263 
-0.11407459115412419 
0.082036930361304230 
-0.0015265943546858606 
0.032054624010353580 
0.14231776847787397 
-0.0080224060249201750 
0.030475586906010755 
-0.13845517672038027 
0.059015227371794010 
-0.036125225367861300 
-0.019895564563002890 
0.063838282377150950 
-0.076708692945661670 
-0.018468675298987075 
0.13096425443148435 
0.068551927301545910 
0.037032961988350856 
0.13988165733292257 
0.17517073928566745 
-0.10367305783661365 
0.26116330172732677 
0.064422528462716510 
-0.0033317387823315293 
-0.035998808886624815 
-0.089879003827618030 
0.062635855198300690 
0.13559551436556860 
0.14171434713204467 
-0.095369489837536640 
-0.20875836736861450 
-0.0027944852640361013 
0.25426164013961990 
0.27010638632149810 
0.063204967025969800 
0.084018597854172820 
-0.037909224359525910 
0.033220460367407700 
-0.15916864695486738 
0.19037880054129389 
0.21815478128288815 
-0.10456022653419764 
0.010761167941665326 
-0.0076563705886917640 
0.081269337179517340 
0.062265657904700330 
0.14326640249171962 
0.067770191862971510 
0.038316047847787180 
-0.0045155443200317300 
0.076811409782504800 
-0.16661084220554084 
0.16847846028453978 
0.0011751338396779746 
0.18436411236481884 
0.15941779453691018 
0.15541839486353953 
0.091740338896192820 
0.024095389107566880 
-0.079480295264147280 
0.047631666856898640 
-0.046894008848949060 
-0.13983357465926088 
0.30225523176941070 
0.061669906960132070 
0.0036143449883232190 
0.15685110644806094 
0.10818175575697576 
-0.076356444120327650 
0.24826316118000072 
0.077118926343666650 
-0.019726374970865100 
-0.023602104980878086 
-0.035461119068775370 
0.11576078719220502 
-0.033930236602495390 
0.14275070174651410 
0.23977859311857840 
0.0012390682794738740 
0.0069278843778345020 
-0.11775794664631628 
0.083235340819401230 
0.12202064647226245 
0.020295102217229620 
0.16914927640363453 
-0.024102025399958194 
0.0063740893707354680 
0.086490786109955700 
-0.081470649087100460 
-0.072920988856361740 
0.24835409376754630 
0.11775250937830245 
0.21773740606292388 
0.15250652323657180 
-0.086186356842517840 
0.19438890400664033 
-0.038448004445862140 
0.044923694610124210 
0.038186564701849265 
0.063176610152447620 
0.021943122116800527 
0.019545559831201950 
0.0066738436960012840 
-0.15184343191675778 
0.45558820332871947 
-0.084259379460174840 
0.024811510068035750 
-0.074794279160347300 
0.21446606061716594 
0.033060904404743830 
0.055100072701633765 
-0.20973072631569076 
0.013738508480202798 
0.23260370159666788 
-0.0084999918306939530 
0.21599300667804863 
0.078962901235903760 
0.086186356842517850 
-0.034621587427044700 
-0.020467587573522773 
-0.0079329926007552270 
0.13002794105088020 
-0.0083715573768297050 
0.0059837458822795840 
0.0038897160843233457 
0.092882751662150900 
-0.048062172169988336 
-0.081389448581729800 
0.048378904052351850 
0.044683519097928820 
-0.050605250467860530 
0.065518863672691440 
0.099864874958510890 
0.043988535884643300 
0.024418915154156468 
-0.098318091519840390 
0.12180458409969950 
0.16234523529989256 
-0.14994389146523590 
-0.044035720095150280 
0.16247731278552036 
-0.19622879510194866 
0.38049193230413880 
0.14578018934987833 
-0.15729855552456645 
-0.048420800947974090 
0.12063665124349035 
0.010160509217484097 
0.12199855669564894 
-0.0043861656444496670 
0.075127773326712680 
0.14728193853279310 
0.085321763063875040 
-0.13740598031607046 
-0.015006297244004320 
-0.018231135671095010 
-0.10334248438511015 
-0.086186356842517920 
-0.19635159095126490 
0.11194292944331753 
-0.081180649726811130 
-0.046329141968563420 
0.11875742573482606 
0.41851836182461640 
0.0016258631562566022 
0.069679607078785940 
0.024113095923732206 
0.0085189384402594440 
0.021189868447829583 
-0.0065629119385534590 
0.083941305524959760 
0.25758068456371080 
-0.15976046009024164 
-0.011021971873313923 
0.060714021742004060 
-0.027315036276279507 
0.085280102656167090 
0.14045006087448800 
0.0030419745947223290 
0.050000923534657820 
0.028783537701040383 
0.084477591761454450 
0.018066868107360740 
0.095128021077413120 
-0.017675855822920410 
0.18552513379056945 
0.13043232069871621 
0.15694468770056275 
0.068342614878020670 
0.072358720863991800 
0.10327839332934857 
0.11608699955056855 
0.16519936456701767 
0.22030368144584403 
0.088924567414606000 
-0.067058626090480040 
0.12015059193204130 
-0.016194676342325610 
-0.076195182138169090 
0.055495326661467540 
0.13163111028866115 
-0.0063192754695841720 
0.063128256473083460 
-0.074003151741973440 
-0.060989293484530450 
0.076791790442777730 
0.054297043396027810 
0.12003040045512839 
0.035078940053669560 
0.072548337189505670 
-0.054328827822695750 
-0.14371594061596332 
0.0067818457103368440 
0.065769393186499850 
-0.0020637505650716900 
-0.0026508376131176804 
0.0089727729030465160 
-0.059900613119712080 
-0.0039526422247518960 
0.031841009218012035 
-0.038580335337165740 
0.055479941009468896 
0.075921493878285450 
0.021631084366643570 
0.024793254980707707 
0.035458000813276845 
0.0087206486841629740 
0.047210372145436010 
0.033310846746207344 
-0.030831262548043530 
-0.024006290360380104 
0.015998301807108782 
0.086186356842517850 
0.051601007750907840 
-0.066265183713044820 
-0.051670109468472190 
-0.022278854378044752 
0.052120116154533260 
-0.0027532563298617410 
6.9388939039072280e-18 
0.0017386055955007737 
-0.0072530341634989580 
0.081310426110263260 
0.021212064178512540 
-0.086186356842517850 
-0.056066127026961010 
-0.028406106640942133 
0.021726079379621364 
0.071707579337669950 
-0.086186356842517850 
-0.0071239666874110645 
-0.077720086988450540 
0.039295490526431505 
0.022656796009856490 
0.037279411418567346 
-0.0027073599100187030 
-0.0048947458561947450 
-0.086186356842517850 
0 
0.024539528946659580 
0.086186356842517850 
0.088680057629696900 
0.020426779299756910 
0.10708777478850282 
0.039103845664458986 
-0.031783532688762220 
-0.055179523646055904 
0.12082324649442490 
-0.018433913423054270 
0.067572901138339070 
0.053838803359175000 
0.017527290468060123 
0.11168472982075270 
-0.015051530306454602 
-0.0087419457478994240 
0.0010419651309606917 
-0.062745809377185050 
-0.018192967434796850 
0 
-0.023360334139686096 
0.048262528426205540 
-0.036149303309465926 
-0.013490862707878745 
-0.18402008621452837 
0.048411677898260994 
-0.099611036112901620 
-0.015125656716419682 
6.9388939039072280e-18 
-0.027285247314812355 
-0.037912743584426490 
-0.028760315553453130 
0.029850843668500430 
-0.0079357604763144460 
0.0064048541486978940 
0.028389145437804093 
-0.031191505752999827 
0.037292717972316460 
0.032197620246617320 
0.0082800825670143640 
0.020444654368805295 
0 
0.031937585608697895 
0.026859798704993990 
0.12336669638510153 
0.13671941730429885 
-0.078035050060513770 
0.066877848883936500 
0.028013674536598362 
-0.044593237281066910 
-0.0022985621390459073 
-0.099906583782786370 
-0.00028874543212712830 
-0.0096723313262897930 
-0.081280467095903670 
-0.041259823907925416 
6.9388939039072280e-18 
0.049966571849035410 
0.081074815695254800 
-0.046895892811943650 
-0.18213755646432670 
-0.10468678242052137 
0.054143249254320140 
0.020022670652315050 
-0.013409759753818943 
-0.033736732720840365 
0.0075895232144183800 
0.0071999937807225010 
0.0010276063152480199 
-0.011405716164853256 
-0.015717006663994365 
0.040535290868057273 
-0.018232834801481550 
-0.0068597075739578060 
-0.028022031702510160 
0.0016907411559262235 
-0.0055870404518753615 
0.028560338314198810 
-0.014569675968671990 
-0.040934893673563560 
-0.0013870253115077268 
-0.0088910224681535610 
-0.0097417264014322230 
0.0030193803573953445 
0.028088929393981568 
-0.012964871270488103 
-0.0052609865809500010 
0.042972876166024700 
0.0038384601846092370 
0.046095538324364076 
-0.062072432798729500 
-0.033102856185058840 
0.0016228866848074291 
-0.045076889828025976 
0.092454173268508520 
0.028792298635217404 
0.0098315537513478260 
-0.011055837682496456 
-0.022412887452270700 
0.015802431987026667 
-0.022349007679681593 
0.072071116671609270 
-0.043243899085611570 
-0.12599119687543453 
0.098509914407257690 
0.039236113434748775 
-0.0098476175064081870 
-0.029271503173563530 
0.018696217680029156 
-0.00043862040386932190 
-0.022954613512349977 
-0.085266833680746200 
-0.056476374450915960 
-0.045153586216109920 
0.013603396808776739 
-0.0010064392294370638 
0.025533374917794116 
0.0073493977620698440 
0.086186356842517850 
-0.069106442021520200 
-0.17019061092528337 
0.024008812092149050 
0.046320255316507280 
0.031159042647253804 
0.17628616107964865 
0.042585450563136010 
-0.078310909792298460 
-0.036179778118153760 
-0.029675928459755350 
0.14483633439188537 
0.048297582053392090 
0.076333089306678450 
0.038865527502282504 
-0.043233769903512030 
-0.016110811658466683 
0.0098026976533060280 
-0.0085882820718363240 
-0.020062645393461538 
-0.022766343967666190 
0.085207970878674600 
-0.026057184704440830 
0.017568602825690690 
0.064569712633425480 
0.0064105603138598830 
0 
0.0073828743907038260 
0.025465241123111890 
-0.061409073679512320 
-0.096847804020852570 
0.031796209400800630 
-0.0016715177569877598 
0.086186356842517850 
0.058558442598125980 
0.056677043545495090 
0.054548822043851880 
-0.0078494560646788470 
0.041380056050775084 
0.024698351426271970 
-0.034630721759684055 
-0.025179035050290070 
0.090028639264469000 
0.024365325377687330 
-0.086079234195848550 
0.021455111882563260 
-0.028621396751755804 
-0.026761609184851397 
-0.025053420334348153 
0.083207705880676930 
-0.00043862040386932020 
-0.053054409692256900 
0.099150250905671950 
-0.085266833680746170 
-0.012250773806964503 
-0.035979911326370295 
-0.061252300869685700 
-0.092222780153553000 
-0.056090889131706730 
-0.16087171998010902 
0.063833506576646550 
0.082381008719358540 
0.0094722766527771590 
-0.013756928155089520 
-0.011803614100208132 
0.22377271074452104 
0.086186356842517850 
-0.23281345972929396 
-0.074076518007572830 
-0.064000237325714530 
-0.052353689475653095 
0.056466563120692580 
0.055304472002673170 
-0.024624241399066110 
0 
-0.068434227222873030 
-0.036456716322536830 
0.020962974457235883 
0.080679762082662380 
0.050584117323256200 
-0.036405799063734400 
0.023499024382611920 
0.052088821553251737 
0.014858931605626232 
0 
-0.030306270696245124 
-0.083106302493089380 
-0.045526530233945234 
-0.037785885835124974 
-0.086186356842517850 
0.050577662573148364 
0.011238776063124107 
-0.030840522170561404 
0.086186356842517850 
0.021973047127511317 
-0.086186356842517850 
0.020529281768278090 
0.038007832240048940 
-0.041352955634231640 
0 
-0.060120361428483040 
0.031800403501268800 
0 
0.11702674919959970 
0.020748617135869122 
-0.10273045767896505 
0.080878436785688030 
0.033509299267051510 
0.033509299267051510 
-0.013544329429654634 
0.064133598308444460 
0.021474671623848654 
0 
-0.086186356842517850 
0.011897524673771014 
0.099012137889573470 
0.11933554128871990 
-0.010909071377234937 
0.036197762571347780 
0.057174254072481390 
-0.0085332200404002050 
-0.0030003439496743413 
-0.0062804370428583165 
-0.015988082692344235 
0.012602787458522948 
-0.032679487390490500 
-0.046256214111585700 
-0.016351908606500078 
-0.014090857157971325 
0.018754579452500673 
0.066308969935870180 
-0.039046691860411030 
-0.063880778010214840 
-0.0044202431643489830 
0 
0.088831190606583860 
0.015255823623015680 
0.049969408755026400 
-0.0039233112285721240 
0 
0.060923701470173010 
0.0089762634748696560 
-0.0044450731343097310 
0.00083555507818101550 
-0.014433887576689123 
-0.063716947792686300 
-0.086186356842517850 
-0.0041698013578135400 
-0.0033125082504690457 
-0.038363123777130910 
0.0051564426028856400 
0.095658633495295130 
0.0073398642374225345 
0.0057148589619898760 
-0.0083470931877513180 
0 
-0.049463776725723430 
-0.0018444088549361675 
-0.0066212017445894890 
0.033066863727054516 
0.072652573729581870 
-6.9388939039072280e-18 
0.060771715758644220 
0.12202064647226245 
-0.055941435999202230 
0.012595746809447169 
-0.043209377368757254 
-0.0041753432183744010 
0.021587631272780055 
0.051722739802335306 
-0.046497730098575770 
0.11599002225999473 
-0.013402655053950010 
-0.12011914208254104 
-0.063143179607596840 
0.15637044732433825 
0.086186356842517850 
0.062910648815254530 
-0.027420104619330372 
0.037088983903888520 
0.029200775331632664 
-0.031992364568113440 
-0.0017543258261974951 
0.077922290761505920 
0.0065109460847164700 
0.060876853751384484 
-0.086186356842517850 
0.0086650026238803120 
0.042025163121641666 
-0.014042155354552930 
0.049969408755026410 
-0.075122852449805710 
-0.050495048396033144 
-0.012384350986706837 
-0.022745964094430540 
-0.030480778390993616 
-0.039594655191996380 
-0.022128415882631886 
0 
0.086186356842517850 
-0.083038657500185830 
-0.067681090623537540 
-0.022390490546107120 
0.039508991807194570 
-0.10235534444022314 
0.016244861808792620 
0.013116239097605623 
0.017517549795030970 
0.017517549795030975 
-0.037227502733980800 
-0.0042475469187144930 
-0.0084259053366843530 
-0.0061389565557578540 
-0.011181686170402313 
-0.11673379069092167 
-0.0082096915650548830 
0.086186356842517850 
-0.0034371581802170696 
0.023043177234920950 
-0.17237271368503562 
0 
0.013779912700476467 
-0.12927953526377678 
0 
0.047250572483004090 
0.021757280674727087 
-0.0012385218540006387 
0.062359995286454380 
-0.027984896637915090 
0.091403439570697270 
0.065016849603912820 
-0.011946996068843915 
-0.086186356842517850 
-0.027046362661329485 
0.030740069148840790 
-0.055332274263429450 
0.065827237299383200 
0.086186356842517850 
0.0038644334312369250 
-0.031478243040152460 
-0.085409989133495150 
0.088633725176529760 
0.019807895892057933 
0.0069230909197489175 
0.030100596593384373 
-0.058101311985280980 
0.044695346637428010 
0.061551231865281590 
0.036776118892732385 
0.0044357048887508300 
0.024396408836644370 
0.11960195207546623 
0.062203157571508890 
-0.021689227288489894 
0.0018516752641666960 
-0.025671943172458425 
-0.092011051488667490 
0.0016783528040440355 
0.086186356842517850 
0.032392390722186686 
-0.018175403378789200 
0.014350756144150415 
0.086186356842517800 
0.024144752613693234 
-0.017862867115930114 
-0.051017352083865125 
-0.025699173543139110 
0.0034950763821791223 
-0.023433436250146343 
0.026428820117809608 
-0.086186356842517850 
-0.026975523270950240 
-0.044595876765226100 
-0.036560906294930494 
-0.041213346565719050 
0.034722099205192870 
0.17237271368503570 
0.027957550873401404 
0.024134985922668245 
-0.027449692652267010 
0.012148322355056768 
-0.10482363334331701 
-0.018175403378789200 
-0.070903240950382400 
-0.019676980532008470 
0.17327468922448470 
0.086186356842517850 
-0.020700639568780772 
0 
-0.0099878751892110290 
-0.068373584942384450 
-0.015439280296020515 
0.014751092805321624 
-0.065870727537674420 
0.023532032081275675 
2.0816681711721685e-17 
-0.11158291395719844 
-0.021698469900433370 
-0.046476786180350580 
0 
0.035936534524475170 
0.0048760630108421205 
0.022153295064280997 
-6.9388939039072280e-18 
-0.029546709111412703 
-0.056091036481410090 
0 
0.047859581634365130 
0.086186356842517850 
0.045874738375635396 
-0.039587034585996470 
0.019160936102447904 
0.028938771211624090 
0 
-0.034630721759684124 
0.0076625876211729085 
-0.042338637662421360 
0.014919113256226132 
0.064389039323291900 
0.0093477450635081160 
-0.0064932420887785360 
0.037734591514764215 
-0.063045737045021910 
0.058445354928394144 
0.0066156438437781250 
6.9388939039072280e-18 
-0.086186356842517850 
-0.048416241642992804 
0.034693428826468000 
0.066118294963732800 
0 
-0.00020986609977596653 
-0.028224228634053840 
-0.022598628564737910 
0.0098003199994576730 
0 
-0.086186356842517850 
0.086186356842517850 
0.023532032081275692 
-0.092772857248956230 
-0.074372575332139220 
-0.039427629471935480 
-0.0084102576904458580 
-0.0060416816638462520 
-0.059702392508021300 
0.047942424217385680 
0.048562973353414585 
0.044541913476174430 
6.9388939039072280e-18 
0.036384741519747480 
-0.066583423937886670 
-0.075512542443210700 
0.015356071420123303 
-3.4694469519536140e-18 
0.086186356842517850 
-0.034631055960836850 
0.086186356842517850 
-0.0075511523232645470 
0.0086957964824738910 
0.032412930452118990 
0.023788375087392646 
-0.0025173698400322696 
-0.0075788198878415350 
0.058068703144467264 
-6.9388939039072280e-18 
-0.043718308234986430 
-0.086186356842517850 
-0.040215809444413320 
0.078850661112711630 
0.0076053883193643090 
0.0010328553133551743 
-0.0074587448447746150 
-0.026344827188804792 
-0.078688210191639240 
0.086186356842517850 
0 
-0.011876796445562027 
-0.016820978173578410 
-0.035414077344309260 
0.034273326395014290 
-0.086186356842517850 
0.0034869450089537090 
-0.022718864142327964 
0.086186356842517850 
-0.086186356842517850 
0.089908280943850420 
-0.050267100739878410 
0.048232014667020026 
-0.084408460849628820 
-0.027187723053405980 
-0.018878004034747750 
0.086186356842517830 
0.067344888400868300 
0.086186356842517850 
0.040474689407188830 
-0.037224715882189834 
-0.016920391092295397 
-0.030861244151605580 
0.0063108863619097210 
-0.085132433973472630 
0.15540902358747140 
0.090404299940699530 
0.018463492689413597 
0.0042179430981817170 
-0.067739543212685940 
2.7755575615628914e-17 
0.042959374063121315 
-0.083634933434583310 
-0.083634933434583320 
0 
-0.057863840671465460 
-0.048163424647977210 
0.10947091833193077 
0.019258334143389396 
0.023486220727858984 
-0.0095937055060203030 
-0.057797211404713715 
0.029272007443498872 
-0.013948354810369127 
0.018550934515029604 
-0.040771276584329050 
-0.035676138107933190 
-0.056234100826314950 
-0.081312816472367850 
-0.021417334077286285 
-0.086186356842517850 
-0.048568839443618380 
0.033569248262375170 
0.086186356842517850 
-0.10409593309909153 
-0.0053144082480544370 
-0.0079389460395940470 
0.016748757952867090 
0.0082455129222634480 
0.026020464591205012 
0.025450462617273826 
-0.046459097933297465 
0.0072998189274276525 
-0.014517662705998854 
0.021852285328901170 
0.027852789225762075 
0.032821107472318076 
0.020122003133120674 
0.036551031250939130 
-0.019979474163857702 
-0.034041973319260184 
0.14393766256025115 
0.026899949152299360 
0.063186495323788780 
0.064433219086267830 
-0.0080975068564144770 
0.028253827997586920 
0.022739353744781890 
0.057040618339621735 
0.051885092247678030 
0.0066698723171760070 
-0.010645487312220517 
0.040508627944751930 
0.014347803940048906 
0.031897933148205380 
0.057432500660510830 
0.068782692945719970 
0.0085387653892757580 
-0.051492559130918460 
0.011343368335549931 
0.010437552378988574 
-0.0016002351957950843 
0.084341947987581590 
0.010003281085760622 
-0.023164681254823183 
6.9388939039072280e-18 
0.040325027407339260 
0.046986410994789670 
-0.082801005450898100 
0.086186356842517850 
0.020789411501265818 
0.068784626512672180 
0.086186356842517850 
-0.0071189925721259865 
0.078089507345115300 
0.031677517700662475 
0.072786593677266740 
0.016732346258168830 
0.066537182576334160 
0.086186356842517850 
-0.086186356842517850 
0.0071256390828613640 
0.086186356842517850 
-0.013383585415744467 
0.017645302205628436 
-0.014228162727409573 
-0.086186356842517850 
0.0048912020085116730 
0.063393534526443250 
-0.070759235002604450 
-0.051753121755293790 
-0.086186356842517850 
0.020171325686252593 
0.023464881527307708 
-0.072236299872482080 
0.098805599136182860 
0.086186356842517850 
-0.037355280562018230 
0.039584652144189840 
0.041823397139825025 
-0.0035435802775531204 
-0.086186356842517830 
0.024374955283805715 
-0.032342654893896844 
-0.0098003630998016800 
0.083297024969373190 
-0.019101669011596354 
0.056586344377661690 
0.044611954141594640 
-0.013372195472547307 
0.024415538140249802 
-0.036211833986834800 
0.17058699988643897 
0.15607925602933095 
0.016864282533009700 
0.086186356842517850 
0.020312240050824562 
-0.039998564828904840 
0.022189237431416837 
0.094756018408760360 
0.071352604579911840 
-0.0050570777601505400 
-0.087073339444483570 
-0.0021324576812484180 
-0.012247881712047434 
0.10039470271170248 
0.21225580273320240 
0.11588817768498420 
0.081305425453356550 
0.15623436596515788 
0.039072539644770546 
8.6736173798840350e-18 
0.092334041722116830 
0.056821716113691540 
0.025393096051929985 
0.083145610377858880 
-0.018101350354420300 
0.0046318644525537820 
-0.086283064201246860 
0.061012532581220720 
-0.085702816917414550 
-0.035128472983836215 
0.028085044857236840 
0.13774904557696147 
0.044445424672682780 
-0.050438941589469060 
-0.12476398292620841 
-0.022476859052006273 
0.094048123042069050 
0.028332937425802573 
-0.094895005514498950 
0.086186356842517850 
-0.034085911197844990 
0 
-0.16276555125844377 
0.0081634744503125810 
-0.033803300355326190 
0.0069047895302964315 
-0.026539822380265324 
-0.086096489185061910 
0.0068501769273152570 
-0.0075185141293469100 
-0.071986951652959550 
-0.035051815952192075 
0.053594962047150675 
-0.074340956155257650 
0.086186356842517850 
-0.16827634670968440 
0.062468642400316340 
-0.049676664514332530 
0.065743866378866810 
0.086186356842517850 
0.026149128418691273 
0.098764747531143450 
0.037770115199525050 
0.029160328495862066 
0.085038578524099320 
0.026122026277026568 
0.051991778843999790 
0.034856418972279334 
0.049839264689439050 
-0.086186356842517850 
0.038131647388244260 
0.0014939656086797974 
-0.083074469580117500 
-0.061697142988932310 
-0.039900076651266090 
0.14592313600391726 
0.024729905621692833 
0.10572335876505894 
-0.040194478284570734 
-0.088845727485725360 
0.086186356842517850 
0.0067062135301464890 
0.10159524658319100 
-0.071109348714237420 
-0.089089791783219370 
0.0092287961552024790 
-3.0686665256384144e-05 
0.058990328914474637 
-0.069140522862758510 
-0.052087692125641336 
-0.0064561594100249270 
-0.045238237154762590 
0.090562825700672760 
0.016742405045458390 
0.070390326784171980 
0.030686359456396790 
-0.088794250219762030 
-0.028139330040812087 
-0.019568215174392500 
0.13292711160399542 
-0.053601564518991880 
0 
-0.014807563370089849 
-0.063966703021011830 
-0.030000580009123343 
-0.053250012259113945 
0.00086216100941390620 
0.0031319126965164592 
-0.044175488134990906 
0.040508358457167080 
-0.050373191355606780 
0.016359392726541782 
0.058321574957568870 
0.050621789972715665 
-0.0078357133045286330 
-0.049521228603308244 
0.067811162233741500 
-0.030893780273738890 
0.087768436362510760 
0.069225258033763250 
0.019776693366113055 
-0.12191092634061892 
0.055225456210363490 
0.0025782856219181195 
-0.021838662957810798 
0.080143421984906790 
0.012943784738829721 
-0.0079642519459650700 
-0.012434149691085979 
0.0094572398091876670 
-0.0085442251145751450 
-0.065118353987908000 
-0.082312348632975920 
0.00027711302079633763 
-0.056085736864509045 
0.12168175260248378 
-0.017914329396453613 
0.054194786846461090 
-0.016122905841545140 
-0.14723988544383693 
-0.073641735150479990 
-0.016051871777105556 
-0.0037462214715317670 
-0.044270532471756950 
-0.010118196160872403 
-0.067119452790855210 
0.11727098057639130 
-0.061977522380560430 
-0.010251133469033273 
-0.066065108198172280 
-0.013490176631514358 
0.15725975431460384 
-0.012877699311051457 
0.13720583473640160 
0 
-0.0088903732854020040 
-0.00045735808832434246 
-0.048154094833574815 
-0.0079117031723314350 
-0.027093589440358473 
0.025950505760968454 
-0.034292609249235990 
0.018676664323331132 
0.010921910602097351 
0.025841023858323497 
0.086186356842517850 
0.086186356842517850 
0.13028689210177240 
-0.026781896995115025 
-0.029857151444699450 
-0.049416967833132030 
0.065743866378866810 
0.010921910602097355 
0.090562825700672700 
0.078933322679018940 
0 
0.14960890647017830 
-0.055976542903055794 
0.055635415376002660 
0.049391534515542770 
-0.0098116628759104640 
-0.078453017552374780 
0.023154818553291684 
-0.020529968354464810 
0.014846418812173114 
0.079025282770621150 
0.10424858583750558 
0.018062228994987363 
0.033314354806736990 
-0.077623407926355820 
-0.031315606604182760 
0.0073267405513446690 
0.10660415445480045 
0.086186356842517850 
-0.036856005501669940 
0.17436965566112933 
-0.0081814374929332500 
-0.0016978353911289030 
0.025093481789895640 
0.0018582581364474844 
0.086186356842517850 
0.00041420353683572010 
0.064418683017308730 
-0.041416270420393066 
0.032713316003772586 
-0.036257322130222670 
0.039608818205616514 
-0.11291337085770266 
0.074990890946294690 
0.23217964046786930 
-0.011435578012338705 
-0.0082096915650548830 
0.11461003165874593 
-0.048949098243027137 
-0.069190007570501590 
0.018062228994987363 
0.021577860081767080 
-0.079219163546718350 
-0.020603473208182538 
0.092482721184103800 
-0.024700560013812014 
-0.043250811064620770 
0 
-0.020237483329006083 
0.036101627732714650 
-0.00030047589218046636 
0.045835354712474590 
-0.0072410532611083110 
0.093334067364589810 
0.029758749399121053 
-0.025596182438565797 
0.070048009122640300 
-0.054248771233819980 
0.0018422101268077903 
0.061915867549961010 
-0.020473440493386934 
-0.042787354104729294 
0.011391394963909911 
0.10125361508780814 
-0.10245052125151780 
-0.0017106601511588470 
-0.021183193379640974 
-0.0070817833500544250 
-0.057403130232604810 
-0.015796030058345824 
-0.081280154529215290 
0.054954348221856240 
0.039229937220971005 
-0.0058481419079621000 
-0.0053941708444806350 
0.035087877292133790 
0.086186356842517850 
0.12780654803277824 
0.022368416192878337 
-0.14831776361182666 
-0.072090033728926920 
-0.049753829977487625 
0.082583451814766270 
-0.026664043274978663 
0.0083069752353902830 
0.065641711661769020 
-0.040916262114977700 
-0.00082046987927366290 
-0.031338629018827770 
-6.9388939039072280e-18 
-0.015524337134687403 
0.17384061274315457 
0.034219080825674110 
0.0038369890370626857 
0.037426095960865430 
-0.098582545656383400 
0.071912018953626210 
-0.11198475228993907 
-0.034487062754077370 
0.097030891419965460 
0.054423804011554514 
0.032135194737717365 
-0.0015762420164280610 
-0.043258849283081660 
-0.048941553458327280 
0.014643872659392924 
0.086186356842517850 
-0.025520458157156900 
-0.010230038857897871 
0.046568822899762420 
0.042162398811210276 
0.012874295877688431 
0.059212942271294250 
-0.027047931784868780 
-0.029216472631546200 
0.035614865382404640 
0.0058242629052929220 
-0.0035900647846837880 
-0.075930340086277550 
0.030721973804917913 
0.11981857680122592 
-0.010077666651275435 
0.048347609429249080 
0.024316137287536610 
0.012016877740109996 
-0.062620042744381250 
-0.021587342900583333 
-0.032169986479129340 
0.042544307124576600 
-0.018982521912738400 
-0.036588398369172210 
-0.011557952186817705 
0.063786143199080210 
-0.051265335725127660 
-0.043885458973171080 
-0.0045030849499598270 
0.065056385760676570 
0.064139494223875590 
-0.0022341455767281365 
0.043330394835858680 
0.080725691104917630 
0.13757468527329694 
-0.033220831233078840 
-0.017212587768468415 
0.054633557947038544 
0.062558289334536640 
0.068027908860336440 
-0.015628432355260260 
0.030156971578283114 
0.038770020466682000 
-0.051384093417040930 
-0.18260450447484250 
0.0025498533952222242 
0.038014209406261795 
0.063747778014542440 
0.079388209699760380 
0.11154955067264310 
0.048088212893710014 
-0.019101669011596354 
-0.066245255149822900 
-0.077541169999170490 
-0.043460136776927250 
3.4694469519536140e-18 
0.036423178210348880 
0.038742654778301460 
-0.096506391974862270 
-0.028951744621231460 
0.098625948191255060 
-0.056299061377474520 
-0.016011913481353553 
-0.023820785865931213 
-0.065238746704573410 
0.0035602656361845625 
0.041895220275888850 
-0.075098801171738450 
0.022158886661393717 
0.049974522855683060 
-0.015809037800510493 
-0.035418865878775720 
-0.089353308889542470 
0.0031613876852374100 
-0.035690540016556430 
0 
0.068493328843689390 
0 
-0.079713118363720190 
0.16232642373515194 
-0.056697250065715660 
0.11926160204632170 
0.12213812431103507 
-0.11490180678003764 
0.038892963205392270 
0.034414048591720425 
0.14975349183216546 
-0.059764891347262254 
-0.017723133765460380 
-0.019049071974403920 
0.074160875362447360 
-0.020064463250048810 
0.10633288418312353 
-0.086186356842517850 
-0.014585551747689008 
0.026157327559479160 
-6.9388939039072280e-18 
0.017553263336340240 
0 
0.019745784601726950 
-0.043137987346978865 
0.011540379525779621 
-0.055779063317707060 
0.011735940251219990 
0.075529654670208490 
0.019336299590009022 
-0.023164172441467908 
0.088815043402628320 
0.079866026253259890 
-0.0046571608894038570 
-0.043676420781804844 
-0.0064958883659862980 
0.091123174850875520 
0.0055971710457840800 
-0.046213500821134270 
0.0095992902034682400 
0.030389782393895094 
0.048088212893710014 
0.086946827819987610 
0.11877386879016831 
-0.010708522153638190 
-0.12859416578580227 
-0.037161029543607690 
-0.029902157887144072 
0.0064092174264401460 
-0.041736751900235264 
0.23067635833092010 
-0.063481488339962530 
0.037971140393674310 
0.065741102090136950 
-0.091301531186488110 
-0.071920023520155040 
-0.10238082576488859 
0.17880812200077192 
0.086186356842517830 
-6.9388939039072280e-18 
0.0049380365513257835 
-0.18604244265856815 
0.0048120232819454060 
-0.10735586408112285 
-0.088166215545046650 
-0.084931318371180220 
0.041724448370654880 
0.0094045645547108560 
-0.14434621583637647 
0.057477231782786250 
-0.11582972186197006 
0.066341055142335490 
0.042227959218603325 
-0.0044508795837039950 
0.0050057071157066910 
-0.086186356842517850 
-0.086186356842517850 
0.086186356842517850 
-0.16869917886046970 
-0.063463607748330870 
0.050891821864364600 
0.028383347188873990 
0.067648989425945370 
-0.037081003457441274 
-0.086186356842517850 
0.014439079662467807 
-0.068675713301591470 
0.086186356842517850 
0.086186356842517850 
-0.031552798895479290 
-0.057182680528601930 
0.0052796065582826675 
-0.086186356842517850 
-0.084370403582008050 
0.078239882446483060 
0.0061716617922243060 
0.093965712673323250 
0.17012766236747740 
-0.043381736024364890 
0.027727612689872644 
0.12927953526377678 
0.11127558576098615 
-0.021042859937463528 
0.028783411340647692 
-0.086186356842517850 
0.073801637409647440 
0.017293095087662747 
0.026929006598335796 
-0.076231214002023180 
0.021344741660755130 
-0.048779834469557650 
-0.032506901303486100 
-0.086186356842517850 
0.071489337305626440 
-0.085020139916439060 
-0.0046571608894038570 
0.022770148577758980 
-0.098781507569426800 
-0.0099626293114649720 
-0.049612196957268470 
-0.072535911138761230 
-0.038560614529333170 
0.078371774569388100 
-0.030881884839844670 
0.019226818336253244 
-0.036383481879958910 
-0.031550791489774924 
0.065415020891981870 
0.039004067682171930 
0.045465734701757610 
-0.035294534978153255 
-0.10928230397544737 
0 
0.10235530455409543 
-0.027063171458533680 
-0.086186356842517870 
-0.086186356842517850 
0.0061476848795989520 
-0.027076698931572888 
0.096860171241824790 
-0.029811094899812374 
0.062956661038536890 
0.11348778543758037 
0.019009181541823482 
0.30098250040371840 
-0.017801231674058090 
0.021492140512045493 
-0.010421096394558807 
-0.086186356842517850 
0.059646534462252520 
0.034121813017475840 
-0.086186356842517850 
0.033823143951748420 
-0.034463617040182530 
0.029973989006879132 
0.021255991964298470 
-0.086186356842517850 
0.058766252223187460 
0.036988431513777620 
0.012762579362185921 
0.062224281671911304 
0.0038407960171069934 
-0.052051884385566224 
-0.031992364568113440 
0.31604975479684810 
0.14886859445207280 
-0.071357221648919500 
0.051497737135609880 
-0.086186356842517850 
0.072141341185106530 
-0.099700244432846280 
-0.040473379183770704 
-0.086186356842517850 
-0.065028751644043120 
-0.0087730299249204400 
0.012939400521974719 
0.036912858271333570 
-0.0011041668811762558 
-0.041335725384147454 
0.086186356842517830 
-0.015026721536537155 
0.013207646255570075 
0.033539007931633360 
-0.014790237735723240 
0.0071583371804043050 
-0.043388846386677250 
0.078088849986103130 
0.012619242293664835 
-0.047592823534869890 
0.017679890424213814 
0.094725122231793720 
0.018582594042969220 
-0.043721851704807060 
-0.086186356842517850 
0.050560222899769110 
0.041895220275888850 
0.016245383338176570 
0.033876044375016096 
0.0053176258298484110 
0.066983975624703890 
0.078505564242164390 
-0.10315274946252961 
-0.057503826607401984 
0.037404121796035104 
0.086186356842517850 
0.058993768271487466 
0.039669586893577830 
0.017316909137167005 
0.011041114339016502 
-0.044145381512746300 
-0.0032762896039138746 
0.068239308541705850 
-0.035294528068325640 
0.067084687830921470 
-0.016146264803277972 
0.057664138128912384 
0.062014488904411060 
0.062014488904411060 
-0.024613134474785185 
-0.047804232733707104 
0.10779462762247037 
-0.088921197868229830 
0.022722749094187096 
0.020467587480336410 
0.096452692979118180 
0.12912881459942430 
0.074261525266198250 
-0.086186356842517850 
0.061517917628118770 
-0.0034686754780254795 
0.064452449138823850 
-0.083288886732686740 
0.020171325686252593 
0.010266336136600135 
0.042895614842965820 
0.061277895863379390 
0.022869149198187305 
0.0011386588945231045 
0 
-0.086186356842517850 
0.049016827390624140 
-0.048093025950849440 
0 
0.086186356842517850 
-0.25219930500605840 
-0.10121251847313620 
0.10689426145946297 
0.047324438751335500 
0.010201174110403693 
0.10629083617631350 
0.031761131846575780 
-0.086186356842517850 
0.13004000624124610 
-0.016146264803277972 
0.012241914516233346 
0.038593533307648030 
0.016674114508623904 
-0.095743791117370790 
0.019387396880443430 
0.095566470750902500 
-0.054248771233819980 
-0.023229548966648736 
-0.070414944138401330 
0.060834872484663840 
-0.15332087109168163 
0.0087599140623301160 
-0.034412531950842940 
0.075164384969203630 
-0.015087421728515245 
0.050779373452382630 
-0.063747641267680450 
0.016378154936260936 
-0.017955413140102294 
0.012619242293664835 
0.091311824999578060 
-0.050501204176980440 
0.092495977989350480 
0.086186356842517850 
-0.050864945544373870 
-0.027131918140391467 
-0.0072510101157246790 
-0.089936280792959890 
